tree
version=v2
num_class=3
num_tree_per_iteration=3
label_index=0
max_feature_idx=11
objective=multiclass num_class:3
feature_names=acousticness danceability duration_ms energy instrumentalness key liveness loudness mode speechiness tempo valence
feature_infos=[0:0.996] [0:0.98799999999999999] [5991:5403500] [0:1] [0:1] [0:11] [0:1] [-60:3.7439999999999998] [0:1] [0:0.96799999999999997] [0:244.09099999999998] [0:1]
tree_sizes=2496 2535 2488 2516 2546 2531 2526 2543 2525 2533 2563 2546 2548 2551 2547 2532 2540 2544 2553 2541 2556 2549 2526 2564 2547 2552 2559 2542 2569 2541 2545 2558 2557 2556 2548 2554 2545 2568 2547 2555 2550 2559 2555 2560 2556 2556 2565 2561 2558 2550 2570 2530 2579 2553 2551 2560 2561 2549 2572 2548 2545 2567 2551 2553 2571 2553 2546 2557 2563 2552 2560 2556 2565 2568 2561 2527 2577 2557 2554 2576 2569 2558 2558 2573 2567 2576 2572 2556 2575 2567 2554 2574 2559 2569 2571 2562 2570 2566 2575 2565 2573 2572 2557 2576 2576 2564 2583 2584 2566 2575 2585 2578 2568 2570 2569 2590 2579 2577 2561 2581 2576 2585 2581 2575 2575 2590 2569 2583 2581 2568 2591 2574 2575 2583 2574 2583 2591 2559 2587 2563 2579 2586 2603 2599 2569 2575 2580 2591 2589 2594 2590 2589 2591 2580 2582 2577 2579 2591 2580 2568 2607 2586 2578 2590 2577 2590 2584 2569 2589 2569 2582 2583 2584 2595 2578 2582 2570 2587 2579 2583 2583 2586 2585 2588 2569 2583 2596 2591 2555 2580 2601 2591 2557 2577 2583 2571 2611 2577 2598 2604 2598 2596 2588 2592 2594 2599 2583 2591 2604 2582 2588 2612 2557 2603 2599 2591 2573 2596 2601 2594 2611 2573 2584 2600 2582 2585 2602 2583 2591 2597 2572 2588 2596 2579 2593 2614 2588 2596 2587 2584 2593 2579 2594 2602 2603 2565 2589 2600 2592 2594 2592 2589 2595 2610 2569 2578 2598 2584 2593 2602 2562 2606 2575 2572 2588 2600 2582 2587 2603 2579 2576 2591 2567 2587 2585 2581 2596 2588 2596 2586 2580 2566 2594 2583 2583 2575 2595 2582 2601 2605 2575 2584 2611 2565 2573 2607 2589 2582 2608 2587

Tree=0
num_leaves=31
num_cat=0
split_feature=3 11 3 11 11 11 3 3 1 1 1 1 3 11 3 1 11 3 11 3 1 11 1 3 3 1 1 3 11 3
split_gain=22837.6 14821.2 1022.13 2107.93 648.465 561.575 517.152 490.95 437.283 234.095 210.998 173.311 146.239 145.697 108.073 99.7366 84.9359 338.667 81.8372 90.9708 79.9916 64.1651 92.7763 73.7324 56.8648 56.3056 54.9934 60.4194 54.1054 86.1838
threshold=0.43850000000000006 0.59450000000000014 0.51050000000000006 0.45850000000000002 0.52850000000000008 0.66750000000000009 0.20750000000000005 0.26750000000000007 0.54050000000000009 0.59250000000000014 0.50850000000000006 0.64250000000000018 0.32350000000000007 0.28350000000000003 0.074250000000000024 0.73950000000000016 0.2185 0.56150000000000022 0.43350000000000005 0.28950000000000004 0.62050000000000016 0.55150000000000021 0.47650000000000009 0.47550000000000009 0.46750000000000008 0.62650000000000017 0.70650000000000013 0.21550000000000005 0.3615000000000001 0.4875000000000001
decision_type=2 2 2 2 2 2 2 2 2 2 2 2 2 2 2 2 2 2 2 2 2 2 2 2 2 2 2 2 2 2
left_child=1 4 3 9 15 6 11 26 -9 28 12 -3 -8 -11 25 -1 17 20 -17 -20 -4 22 23 -5 -15 -7 -6 -28 -2 -30
right_child=2 5 16 21 7 14 10 8 -10 13 -12 -13 -14 24 -16 18 -18 -19 19 -21 -22 -23 -24 -25 -26 -27 27 -29 29 -31
leaf_value=-0.93370751859548151 -0.93687251230175861 -0.94866314063874302 -0.96680282758417202 -0.96938718151591474 -0.93634590569299181 -0.97296181191280318 -0.97196041982301784 -0.97599414692710429 -1.1252269136554918 -0.97125529758228135 -1.1442442097589189 -1.0667217823934474 -1.1101434724180119 -1.0379825131512468 -1.1483884496858905 -0.95107204611724128 -1.1538784642524309 -1.1475736139500485 -0.96108669263692426 -1.1415757734249838 -1.1192890796869888 -1.1536822812993417 -1.1433687811909279 -1.1240393650347542 -1.1419184625241363 -1.1253280684066314 -0.9647416123091106 -1.1126447501835974 -0.95490262660039371 -1.0886210389680175
leaf_count=26889 1266 699 318 154 1509 119 316 791 979 316 1745 459 371 193 10065 404 43393 2764 114 137 101 4679 576 124 299 99 223 85 366 152
internal_value=0 0.787616 -0.647993 -0.159454 1.35946 -0.495608 0.0126772 0.762469 0.202944 0.951396 -0.378263 0.833719 0.32247 0.284826 -0.67306 1.43721 -0.733217 -0.497858 0.861694 0.192297 0.752707 -0.679845 -0.303581 0.404616 -0.223165 0.366746 1.30752 0.732713 1.2533 0.846898
internal_count=99705 45004 54701 8125 31131 13873 3590 3587 1770 2592 2432 1158 687 808 10283 27544 46576 3183 655 251 419 5533 854 278 492 218 1817 308 1784 518
shrinkage=1


Tree=1
num_leaves=31
num_cat=0
split_feature=11 3 11 11 11 3 3 1 3 3 1 1 1 11 1 1 1 11 3 3 1 3 3 3 1 1 3 11 3 3
split_gain=29746.9 2533.02 2107.45 1272.18 948.644 727.52 810.581 927.973 537.99 550.106 294.383 284.43 274.227 221.619 208.856 184.077 140.814 154.124 161.37 139.565 120.628 108.388 159.789 100.557 96.4517 93.2953 89.8286 87.0615 126.543 104.488
threshold=0.60450000000000015 0.80750000000000011 0.80850000000000011 0.51150000000000018 0.68250000000000011 0.65850000000000009 0.28550000000000003 0.52850000000000008 0.68450000000000022 0.20750000000000005 0.69650000000000012 0.66250000000000009 0.49650000000000011 0.70650000000000013 0.61850000000000016 0.51250000000000007 0.73950000000000016 0.39750000000000002 0.59550000000000003 0.60350000000000004 0.41650000000000009 0.58350000000000002 0.30150000000000005 0.31950000000000006 0.68650000000000011 0.70650000000000013 0.21150000000000005 0.78750000000000009 0.65850000000000009 0.23950000000000002
decision_type=2 2 2 2 2 2 2 2 2 2 2 2 2 2 2 2 2 2 2 2 2 2 2 2 2 2 2 2 2 2
left_child=3 4 11 16 8 6 25 -8 9 14 -10 -3 21 -13 -2 -4 -1 -18 23 -9 27 22 -11 -19 -21 -5 -27 28 29 -6
right_child=1 2 15 5 20 -7 7 19 10 12 -12 13 -14 -15 -16 -17 17 18 -20 24 -22 -23 -24 -25 -26 26 -28 -29 -30 -31
leaf_value=-0.99873219793857271 -0.98614208558872563 -0.98986422922250006 -0.88704125591717375 -0.99032388674709337 -0.97005771446665401 -0.99466736550861801 -0.95909351083020722 -0.81729220580987272 -0.97928952785257617 -0.95961449379192165 -0.82940440302444185 -0.97691922434076406 -0.79895791650257986 -0.84601663494358925 -0.86544132979283739 -0.80026286792846646 -0.99358122035696061 -0.97361278799866591 -0.9899034442222473 -0.9710292130178968 -0.79546797983517736 -0.96055425776996273 -0.82433369478931151 -0.83230059830479219 -0.8310186510697577 -0.96802083153219531 -0.83684328156334087 -0.80232877009991066 -0.97140304654250964 -0.81054779466076765
leaf_count=42831 599 3242 625 2377 103 3813 1937 2498 977 235 379 488 4022 602 596 2754 1313 140 377 227 25951 251 806 419 187 296 172 788 194 506
internal_value=0 0.903298 0.153544 -0.688292 1.06658 -0.259876 -0.00434808 0.354555 0.624405 0.796731 -0.202783 -0.512976 0.995743 0.12496 -0.088247 1.00805 -0.797649 -0.445558 0.00202554 0.869605 1.19285 0.417149 0.622459 0.494267 0.0933079 -0.616059 -0.0269176 0.807009 0.472489 0.795929
internal_count=99705 43118 7711 56587 35407 11507 7694 4849 7865 6509 1356 4332 5314 1090 1195 3379 45080 2249 936 2912 27542 1292 1041 559 414 2845 468 1591 803 609
shrinkage=1


Tree=2
num_leaves=31
num_cat=0
split_feature=3 11 3 11 11 3 1 3 3 11 1 1 1 11 1 11 11 3 1 11 3 3 1 3 11 1 11 1 11 3
split_gain=18044.4 15313.3 1421.12 1282.07 1217.34 1644.91 422.794 393.507 376.993 515.165 297.229 237.031 229.229 226.557 231.426 195 171.078 283.015 218.771 161.095 114.679 111.262 110.026 86.9882 85.1998 79.7904 77.6489 74.362 107.479 143.914
threshold=0.52250000000000008 0.68850000000000011 0.84150000000000014 0.81150000000000011 0.59150000000000014 0.71250000000000013 0.50850000000000006 0.58750000000000013 0.47550000000000009 0.56850000000000012 0.6765000000000001 0.51250000000000007 0.74150000000000016 0.52250000000000008 0.57650000000000012 0.25350000000000006 0.74650000000000005 0.77550000000000008 0.64250000000000018 0.17850000000000002 0.81150000000000011 0.59150000000000014 0.43450000000000005 0.64650000000000007 0.89350000000000007 0.51450000000000007 0.74950000000000017 0.78050000000000008 0.50350000000000017 0.71250000000000013
decision_type=2 2 2 2 2 2 2 2 2 2 2 2 2 2 2 2 2 2 2 2 2 2 2 2 2 2 2 2 2 2
left_child=8 4 16 10 7 6 21 13 -1 15 -4 24 -7 19 -15 -10 17 22 -19 25 -14 -6 23 -3 -5 -2 -12 -9 -29 -30
right_child=1 2 3 11 5 12 -8 27 9 -11 26 -13 20 14 -16 -17 -18 18 -20 -21 -22 -23 -24 -25 -26 -27 -28 28 29 -31
leaf_value=-1.4126291923449557 -1.3662783959001685 -1.3923906107962893 -1.1674003940410813 -1.2135629539466233 -1.3257251980338054 -1.1616009662628217 -1.3864287336844312 -1.1562170508233343 -1.3885169478297656 -1.4107763871577117 -1.24026863804843 -1.4004765475330063 -1.3595417323244534 -1.1992702479339887 -1.3953620984042803 -1.2802399977842467 -1.4089079872418093 -1.168381464536582 -1.3809158930243604 -1.1837771909444772 -1.1916122903810811 -1.1879300396356673 -1.4006914704610891 -1.188337343903471 -1.3534522278515455 -1.2096147491434195 -1.3739698298483567 -1.1615989097157391 -1.3822763685446251 -1.1670321975875904
leaf_count=49225 204 99 1537 269 237 2931 1937 15472 585 3000 201 1953 246 285 346 1650 12445 301 216 2289 185 425 2068 120 195 144 257 560 167 156
internal_value=0 0.752083 -0.317291 0.488115 1.57388 0.936142 -0.0265935 1.76762 -0.624826 -0.213712 1.44422 -0.301056 1.68039 1.25714 0.3898 0.371936 -0.55032 -0.190749 0.885972 1.46468 0.583139 1.08513 -0.434153 0.651939 0.734219 0.443224 0.304814 1.86962 1.41479 0.674551
internal_count=99705 45245 19661 4412 25584 5961 2599 19623 54460 5235 1995 2417 3362 3268 631 2235 15249 2804 517 2637 431 662 2287 219 464 348 458 16355 883 323
shrinkage=1


Tree=3
num_leaves=31
num_cat=0
split_feature=3 11 11 3 11 3 11 3 1 1 3 1 1 1 3 11 1 3 11 11 3 1 1 11 3 3 11 1 1 1
split_gain=19527.5 12704.9 631.42 488.103 1115.77 467.438 432.114 477.905 395.572 179.195 176.922 199.918 142.187 116.19 115.097 110.25 101.325 178.038 81.8334 79.4009 301.874 74.5618 61.9411 59.6023 75.1079 58.0607 49.3569 51.0187 48.9163 47.0909
threshold=0.45950000000000008 0.58450000000000013 0.64150000000000007 0.51050000000000006 0.40550000000000008 0.23950000000000002 0.49650000000000011 0.33150000000000007 0.52050000000000007 0.50850000000000006 0.14850000000000005 0.60450000000000015 0.59250000000000014 0.6805000000000001 0.34850000000000003 0.75250000000000006 0.66050000000000009 0.24750000000000003 0.28350000000000003 0.2185 0.56450000000000011 0.63650000000000018 0.75050000000000006 0.3575000000000001 0.3575000000000001 0.13150000000000003 0.46650000000000008 0.47150000000000009 0.36350000000000005 0.43450000000000005
decision_type=2 2 2 2 2 2 2 2 2 2 2 2 2 2 2 2 2 2 2 2 2 2 2 2 2 2 2 2 2 2
left_child=1 6 5 4 12 13 22 16 -9 14 11 15 -2 -3 -7 -4 -8 -18 -14 20 21 -5 -1 -24 -25 -15 27 -6 -16 -12
right_child=3 2 10 19 26 9 7 8 -10 -11 29 -13 18 25 28 -17 17 -19 -20 -21 -22 -23 23 24 -26 -27 -28 -29 -30 -31
leaf_value=0.12678083162100581 0.1151086002975603 0.11453550029643063 0.11902615736532077 0.094388569737823627 0.075911632544811633 0.10175563321945805 0.12411114716563121 0.097368093822333801 -0.050846536833529313 -0.065334454265943059 -0.035505289478265638 -0.055454100684702051 0.07953494218319096 0.10175809055054158 0.081177489269969733 -0.0304225198157289 0.11372296681446428 -0.024270115877356176 -0.043503573914828654 -0.072166645719421108 -0.066971720233442042 -0.051932620476035987 0.12446643878503866 0.10325393227476856 -0.054619076356407718 -0.030764585469910566 -0.06994566073310006 -0.049126554073303602 -0.06279818786558905 -0.07017869629989805
leaf_count=26186 1006 853 313 354 102 281 2565 669 949 1277 986 788 227 107 68 173 586 314 245 43393 2729 100 264 131 131 229 3829 235 234 10381
internal_value=0 0.672354 -0.458547 -0.652675 -0.235737 0.148743 1.185 0.792501 0.123828 -0.330136 -0.610657 -0.0782615 0.844943 0.861672 0.346803 0.671001 1.09471 0.66981 0.172834 -0.704509 -0.474128 0.634394 1.25801 0.760612 0.259108 0.117176 -0.649164 -0.105853 -0.301516 -0.67145
internal_count=99705 47485 15690 52220 5644 3049 31795 5083 1618 1860 12641 1274 1478 1189 583 486 3465 900 472 46576 3183 454 26712 526 262 336 4166 337 302 11367
shrinkage=0.1


Tree=4
num_leaves=31
num_cat=0
split_feature=11 3 11 11 11 3 3 1 3 3 1 1 1 1 11 1 1 11 3 1 3 3 3 1 3 11 3 3 3 1
split_gain=25143.6 2045.93 1701.32 1148.02 778.229 645.757 688.425 769.621 537.574 448.614 255.332 246.447 223.937 213.857 171.556 151.086 138.711 147.829 145.239 110.412 125.067 94.6025 94.0457 79.2972 83.4045 100.657 81.9855 67.2868 103.145 66.5828
threshold=0.60450000000000015 0.81450000000000011 0.80850000000000011 0.51550000000000018 0.69150000000000011 0.65850000000000009 0.27150000000000007 0.52850000000000008 0.70050000000000001 0.20350000000000004 0.43450000000000005 0.70450000000000013 0.6785000000000001 0.61850000000000016 0.70650000000000013 0.49650000000000011 0.73950000000000016 0.39750000000000002 0.59550000000000003 0.63050000000000017 0.57550000000000012 0.32750000000000007 0.28550000000000003 0.43150000000000011 0.70850000000000013 0.78750000000000009 0.14850000000000005 0.59150000000000014 0.32750000000000007 0.70250000000000012
decision_type=2 2 2 2 2 2 2 2 2 2 2 2 2 2 2 2 2 2 2 2 2 2 2 2 2 2 2 2 2 2
left_child=3 4 12 16 8 6 29 -8 9 13 27 -10 -3 -2 -14 -4 -1 -18 22 20 21 -9 -19 24 26 -26 -6 28 -11 -5
right_child=1 2 15 5 23 -7 7 19 11 10 -12 -13 14 -15 -16 -17 17 18 -20 -21 -22 -23 -24 -25 25 -27 -28 -29 -30 -31
leaf_value=-0.077156134782304056 -0.065358324446386382 -0.069115166700097583 0.017895858752815866 -0.072408083915402932 -0.048994087735259172 -0.0733704385860562 -0.03916404697275333 -0.014102417194789461 -0.06088498836881906 -0.056055724404181939 0.099982950443068985 0.078563756915134467 -0.05844948584621476 0.052699788300205747 0.069811417891336977 0.10274779225220745 -0.072658802153182891 -0.069325709933394292 -0.066394674298198827 0.10151348825552338 -0.051497292133284092 0.091131768927471393 0.076117330029438809 0.10934731780069891 -0.073210722171663384 0.084882384891480811 0.10048683014399151 -0.065990991107067631 0.072508357493143313 -0.010462959572058159
leaf_count=43266 634 3230 516 2052 80 3664 1925 228 1037 184 5436 350 397 649 483 2658 1313 118 399 1725 229 760 463 25052 153 182 1463 178 436 445
internal_value=0 0.813902 0.115171 -0.649326 0.952452 -0.229614 0.0154216 0.327448 0.584569 0.733669 0.890094 -0.246868 -0.511297 -0.0462848 0.13196 0.891731 -0.752814 -0.403855 0.0198687 0.783046 0.452228 0.670318 0.474303 1.0724 0.789517 0.14008 0.928771 0.130387 0.35064 -0.611741
internal_count=99705 43118 7284 56587 35834 11028 7364 4867 8904 7517 6234 1387 4110 1283 880 3174 45559 2293 980 2942 1217 988 581 26930 1878 335 1543 798 620 2497
shrinkage=0.1


Tree=5
num_leaves=31
num_cat=0
split_feature=3 11 3 11 11 3 3 11 3 1 11 1 1 1 1 11 3 1 11 3 11 3 1 3 11 11 1 1 11 3
split_gain=15496.9 11607.1 1204.24 901.336 889.712 1233.86 361.121 457.542 288.203 284.34 237.628 261.302 201.417 188.523 178.289 168.801 303.124 232.75 161.241 142.964 108.167 95.1642 91.224 95.3707 61.2989 58.2964 54.6816 53.3169 75.3093 112.422
threshold=0.52250000000000008 0.69450000000000012 0.85250000000000015 0.82150000000000012 0.60450000000000015 0.71250000000000013 0.47550000000000009 0.56850000000000012 0.60350000000000004 0.50650000000000006 0.52250000000000008 0.57650000000000012 0.68450000000000022 0.51250000000000007 0.70450000000000013 0.76550000000000007 0.77550000000000008 0.62050000000000016 0.25350000000000006 0.78750000000000009 0.16750000000000001 0.59150000000000014 0.45250000000000007 0.65850000000000009 0.89350000000000007 0.75950000000000017 0.44950000000000007 0.78350000000000009 0.51150000000000018 0.71250000000000013
decision_type=2 2 2 2 2 2 2 2 2 2 2 2 2 2 2 2 2 2 2 2 2 2 2 2 2 2 2 2 2 2
left_child=6 4 15 12 8 9 -1 18 10 21 20 -12 -4 24 -7 16 22 -18 -8 -16 26 -6 23 -3 -5 -14 -2 -10 -29 -30
right_child=1 2 3 13 5 14 7 -9 27 -11 11 -13 25 -15 19 -17 17 -19 -20 -21 -22 -23 -24 -25 -26 -27 -28 28 29 -31
leaf_value=-0.06518871395564782 -0.016154282208412203 -0.053409411943741769 0.14848915740743093 0.12474944226042868 -0.0072532466963101359 0.15453165155199575 -0.041056058544258305 -0.063258071680717148 0.15688702479411773 -0.045992511358809093 0.12758360768274521 -0.045003568731842962 0.084355188147309676 -0.055104300532479215 -0.037849667547882368 -0.062499276571257784 0.15120773284020636 -0.025520386889898123 0.057880769850659264 0.1223959158802973 0.13805092044496065 0.12345591679761153 -0.058345666326669265 0.12379440420061925 -0.0020360862632107595 -0.04105875340678887 0.10479235533858462 0.15279654029617595 -0.045392161756094569 0.13964000945954055
leaf_count=49225 179 166 1459 209 219 2544 585 3000 15471 1834 397 497 177 1650 241 11854 378 372 1650 331 2833 391 2476 148 177 206 192 516 154 174
internal_value=0 0.667184 -0.317859 0.469396 1.31459 0.754193 -0.607393 -0.202495 1.45915 -0.127043 1.0908 0.359046 1.23412 -0.30049 1.3759 -0.529778 -0.218053 0.669056 0.333541 0.578946 1.28088 0.789842 -0.474838 0.339004 0.685796 0.188363 0.480306 1.54877 1.17102 0.576298
internal_count=99705 45245 19272 3878 25973 5560 54460 5235 20413 2444 4098 894 1842 2036 3116 15394 3540 750 2235 572 3204 610 2790 314 386 383 371 16315 844 328
shrinkage=0.1


Tree=6
num_leaves=31
num_cat=0
split_feature=3 11 11 11 3 11 3 3 1 1 1 1 1 3 3 1 1 11 3 11 3 11 11 3 1 3 1 1 1 3
split_gain=16850.3 10307.4 451.952 450.459 449.132 962.946 416.733 376.638 245.125 175.307 154.506 120.924 106.997 200.166 90.4655 131.56 88.4574 75.1905 274.298 74.3822 73.9136 70.562 67.4922 95.8663 65.9314 64.3502 45.4548 30.17 29.1243 68.3221
threshold=0.45950000000000008 0.59450000000000014 0.6705000000000001 0.52850000000000008 0.51050000000000006 0.40550000000000008 0.23150000000000001 0.33150000000000007 0.47350000000000003 0.64250000000000018 0.43450000000000005 0.59250000000000014 0.62050000000000016 0.24750000000000003 0.14850000000000005 0.60450000000000015 0.73950000000000016 0.2235 0.56450000000000011 0.75250000000000006 0.3615000000000001 0.28350000000000003 0.38950000000000007 0.31950000000000006 0.53850000000000009 0.13550000000000004 0.34050000000000008 0.75950000000000017 0.53850000000000009 0.28950000000000004
decision_type=2 2 2 2 2 2 2 2 2 2 2 2 2 2 2 2 2 2 2 2 2 2 2 2 2 2 2 2 2 2
left_child=1 3 6 16 5 11 9 12 -9 -3 20 -2 -5 27 15 19 -1 18 24 -4 -8 -13 -18 -24 -6 -11 -7 -14 29 -12
right_child=4 2 14 7 17 26 10 8 -10 25 28 21 13 -15 -16 -17 22 -19 -20 -21 -22 -23 23 -25 -26 -27 -28 -29 -30 -31
leaf_value=0.11173758446538379 0.10338836964047647 0.098790575083610263 0.10386531396378029 0.11173636106801284 0.096798328403875644 0.027805874981583302 0.11041352751146222 0.089632141712056107 -0.055423070509675411 0.061818795230398932 0.059368357332117351 0.070487730040330696 0.1056772454502394 -0.045546964072103825 -0.067369963216413309 -0.063175332113578161 0.10408886319827591 -0.069689321895071418 -0.064692343590383145 -0.028248634647152378 -0.026971750056827084 -0.043087265790791002 0.088088865521121051 -0.059757792177033357 -0.017835112224441407 -0.041495795613029671 -0.065424052268162544 0.013514723790787523 -0.068955887463622009 -0.060127056365865121
leaf_count=27806 1006 867 217 1523 301 122 187 347 893 204 144 227 595 336 10116 665 371 43249 2853 173 163 245 190 194 173 392 4044 85 1591 426
internal_value=0 0.612423 -0.463511 1.04459 -0.627893 -0.224206 -0.029919 0.569604 -0.115619 0.581836 -0.420523 0.757901 0.879649 0.510879 -0.627598 -0.201783 1.10455 -0.679279 -0.457031 0.477873 0.490509 0.1398 0.613363 0.171541 0.567088 -0.05341 -0.625253 0.943852 -0.579859 -0.286803
internal_count=99705 47485 15145 32340 52220 5644 3974 3779 1240 1463 2511 1478 2539 1016 11171 1055 28561 46576 3327 390 350 472 755 384 474 596 4166 680 2161 570
shrinkage=0.1


Tree=7
num_leaves=31
num_cat=0
split_feature=11 3 11 11 11 3 3 1 3 3 1 1 1 1 1 1 11 3 3 3 1 1 3 11 11 1 11 3 3 3
split_gain=21445.4 1727.68 1622.99 956.207 658.38 526.483 587.461 627.663 345.084 377.71 217.269 210.351 208.488 193.42 144.443 120.58 133.93 125.572 109.896 109.474 109.455 103.014 143.953 98.3622 98.1128 86.1327 101.552 135.87 145.134 84.8875
threshold=0.60050000000000014 0.79950000000000021 0.78750000000000009 0.51150000000000018 0.6735000000000001 0.65850000000000009 0.30150000000000005 0.52050000000000007 0.6755000000000001 0.20750000000000005 0.72250000000000003 0.6785000000000001 0.4875000000000001 0.49650000000000011 0.64250000000000018 0.72050000000000003 0.43350000000000005 0.59550000000000003 0.31150000000000005 0.56850000000000012 0.64650000000000007 0.63850000000000018 0.22750000000000001 0.69750000000000012 0.86950000000000016 0.47850000000000004 0.74650000000000005 0.68150000000000011 0.23950000000000002 0.30150000000000005
decision_type=2 2 2 2 2 2 2 2 2 2 2 2 2 2 2 2 2 2 2 2 2 2 2 2 2 2 2 2 2 2
left_child=3 4 10 15 8 6 21 -8 9 14 -3 -10 29 24 -2 -1 -17 18 -18 -9 -21 -5 -23 -12 -4 26 27 28 -6 -11
right_child=1 2 13 5 25 -7 7 19 11 12 23 -13 -14 -15 -16 16 17 -19 -20 20 -22 22 -24 -25 -26 -27 -28 -29 -30 -31
leaf_value=-0.074010350740539077 -0.057153316695414583 -0.065888189128476202 -0.04722797419904054 -0.07254938291827466 -0.059110010430224583 -0.070329896173791512 -0.040136371901865302 0.089113536950536254 -0.061862086837689928 -0.062786699293881851 -0.040576632694871662 0.062029786357244043 0.095336499622549017 0.090319512546936265 0.047968459611872752 -0.064837281118692539 -0.058838077869425555 -0.065236381722781192 0.086920304447246508 -0.042045588994028549 0.0748325258210953 -0.056222498097513812 0.058414106839803595 0.07803865609376856 0.06216294803867474 0.099739949579995921 0.093837179840348631 -0.062869855763483473 0.08661863476430573 0.04270056732801672
leaf_count=42258 677 3590 352 1983 167 3640 1665 2044 875 196 260 423 3762 3382 458 1918 157 359 388 309 362 664 354 338 328 24510 2290 212 890 894
internal_value=0 0.735894 0.137112 -0.622045 0.870094 -0.236312 -0.0163804 0.314455 0.485734 0.627711 -0.518386 -0.198041 0.796896 0.766099 -0.130758 -0.719899 -0.42455 0.0379422 0.469068 0.729436 0.223271 -0.525918 -0.149685 0.283881 0.0637854 0.96762 0.76116 0.436659 0.64112 0.243235
internal_count=99705 43604 8250 56101 35354 11021 7381 4380 7285 5987 4188 1298 4852 4062 1135 45080 2822 904 545 2715 671 3001 1018 598 680 28069 3559 1269 1057 1090
shrinkage=0.1


Tree=8
num_leaves=31
num_cat=0
split_feature=3 11 3 11 3 11 3 11 3 1 11 1 1 1 1 11 1 3 11 3 11 3 1 1 11 3 3 11 1 1
split_gain=13439.1 9130.49 990.337 736.1 1026.98 672.093 346.49 413.853 226.364 222.393 170.967 179.635 168.626 158.948 153.58 148.001 127.132 162.906 237.762 90.0466 88.149 76.4297 66.6358 65.7053 98.2082 177.535 63.3953 52.2301 48.1851 46.5521
threshold=0.52250000000000008 0.70350000000000013 0.85250000000000015 0.61450000000000016 0.71250000000000013 0.82750000000000012 0.46750000000000008 0.56850000000000012 0.58750000000000013 0.50650000000000006 0.53150000000000019 0.5485000000000001 0.6725000000000001 0.74150000000000016 0.51250000000000007 0.28350000000000003 0.4875000000000001 0.70850000000000013 0.82150000000000012 0.61150000000000004 0.16750000000000001 0.83450000000000013 0.71050000000000002 0.72450000000000014 0.53850000000000009 0.70450000000000013 0.4915000000000001 0.77150000000000007 0.53650000000000009 0.6705000000000001
decision_type=2 2 2 2 2 2 2 2 2 2 2 2 2 2 2 2 2 2 2 2 2 2 2 2 2 2 2 2 2 2
left_child=6 3 16 8 9 12 -1 15 10 19 20 -12 -4 -6 -7 22 17 -3 -19 -5 28 -15 -8 -10 -25 -26 -17 -14 -2 -28
right_child=1 2 5 4 13 14 7 -9 23 -11 11 -13 27 21 -16 26 -18 18 -20 -21 -22 -23 -24 24 25 -27 29 -29 -30 -31
leaf_value=-0.064058449279951191 -0.022900000756266976 -0.056843228611999891 0.12786683424325154 -0.0079938664314201692 0.12911127936887695 0.058297683950447321 -0.05293088016547879 -0.06179910804634995 0.13483907337473822 -0.049586503081308714 0.10699894207225986 -0.051170072535314776 0.067383057892315218 -0.027735886494818632 -0.054628936590815816 0.01507065807996448 -0.058884224668314555 0.12342947590309189 -0.055041180516874288 0.11263449761637728 0.11513812812481505 0.11354332749412993 0.084068531887183995 0.12753697376771875 -0.052063653559791347 0.12075555202860822 0.09447617402994192 -0.045771842110158056 0.10393509067477787 0.018248555070339099
leaf_count=48342 195 1044 1349 280 2681 371 718 3506 15656 1875 301 438 211 270 1603 802 13119 409 383 329 2407 135 109 1283 250 334 720 211 111 263
internal_value=0 0.602242 -0.325797 1.12946 0.622497 0.393079 -0.591217 -0.223462 1.25147 -0.194795 0.895518 0.205204 1.03785 1.16682 -0.305046 0.240944 -0.529567 -0.122396 0.423224 0.605631 1.05996 0.243911 -0.344819 1.31777 1.05241 0.525878 0.484475 0.135775 0.267216 0.74366
internal_count=99705 45245 18700 26545 5570 3745 54460 6118 20975 2484 3452 739 1771 3086 1974 2612 14955 1836 792 609 2713 405 827 17523 1867 584 1785 422 306 983
shrinkage=0.1


Tree=9
num_leaves=31
num_cat=0
split_feature=3 11 11 3 11 3 3 11 1 1 1 11 1 3 1 1 11 1 11 3 11 3 3 1 11 3 11 1 1 1
split_gain=14636.7 8518.01 424.521 418.389 986.286 374.115 315.171 274.331 265.732 133.438 110.198 107.914 135.169 122.755 81.447 80.8006 69.8643 76.9052 63.0886 59.8024 58.3631 89.7422 55.5801 44.5396 43.2966 41.0499 40.7706 38.4273 38.0856 33.7847
threshold=0.45950000000000008 0.60050000000000014 0.53450000000000009 0.52950000000000019 0.36950000000000005 0.18450000000000003 0.26750000000000007 0.69750000000000012 0.52650000000000008 0.65850000000000009 0.53850000000000009 0.65050000000000008 0.52250000000000008 0.32350000000000007 0.49850000000000005 0.73950000000000016 0.46650000000000008 0.51650000000000007 0.24850000000000003 0.4915000000000001 0.38950000000000007 0.28250000000000003 0.39950000000000002 0.75950000000000017 0.63150000000000006 0.47950000000000004 0.76850000000000007 0.41050000000000003 0.3775 0.61050000000000015
decision_type=2 2 2 2 2 2 2 2 2 2 2 2 2 2 2 2 2 2 2 2 2 2 2 2 2 2 2 2 2 2
left_child=1 2 15 4 10 7 23 9 22 -3 -2 12 13 -7 26 -1 17 19 -12 -6 -17 -22 -8 -4 -11 -20 -9 -24 -15 -10
right_child=3 5 6 -5 16 11 8 14 29 24 18 -13 -14 28 -16 20 -18 -19 25 -21 21 -23 27 -25 -26 -27 -28 -29 -30 -31
leaf_value=0.10095907547016454 0.099522589534045941 0.093204998228385016 0.094935014980587235 -0.066747489302900573 0.096859239364352701 0.095865909323399445 0.090767861713581283 0.11726074298446952 -0.010642221418819519 0.05788824182465821 0.071743527511181279 -0.064648734705798988 -0.054412433194629108 0.059088146716359084 -0.059947299047920621 0.093958473041939231 -0.066094184551413845 -0.059089565798394209 0.052503543363097351 -0.029786133200098475 0.093154108789297863 -0.045354587815606362 0.080159931078088248 -0.0082330451613594046 -0.043317032830994667 -0.048430324875976261 -0.017721700159370805 -0.040535862270558359 -0.062283744097072491 -0.064928502245174241
leaf_count=28144 968 736 1695 44403 162 299 564 91 431 138 317 10246 1359 76 1168 371 5353 448 126 164 168 250 89 93 304 279 119 141 271 732
internal_value=0 0.5645 0.940807 -0.605968 -0.276811 -0.458891 0.476604 0.0676923 0.0506025 0.569179 0.682518 -0.578366 -0.251527 0.301083 -0.429758 0.997357 -0.592792 -0.173935 0.245382 0.364589 0.539212 0.150427 0.668307 0.897889 -0.102328 -0.152151 0.439536 0.0689946 -0.34397 -0.44207
internal_count=99705 47485 32678 52220 7817 14807 3745 2556 1957 1178 1690 12251 2005 646 1378 28933 6127 774 722 326 789 418 794 1788 442 405 210 230 347 1163
shrinkage=0.1


Tree=10
num_leaves=31
num_cat=0
split_feature=11 3 11 11 11 3 3 1 3 3 1 1 11 1 1 3 3 1 1 11 3 3 1 1 1 3 3 11 3 3
split_gain=18416.2 1458.92 1239.85 877.659 605.975 475.797 518.292 577.717 373.695 287.504 214.137 180.479 145.22 121.086 119.728 119.479 125.325 109.061 101.141 109.917 108.217 96.8795 101.654 96.6786 94.6145 127.563 84.8175 97.6054 77.0533 63.9349
threshold=0.60050000000000014 0.81850000000000012 0.81150000000000011 0.50750000000000017 0.6735000000000001 0.65850000000000009 0.30150000000000005 0.52650000000000008 0.71250000000000013 0.20350000000000004 0.50850000000000006 0.66250000000000009 0.73050000000000004 0.65850000000000009 0.70450000000000013 0.59150000000000014 0.32350000000000007 0.45750000000000007 0.74750000000000016 0.38150000000000006 0.58350000000000002 0.55750000000000011 0.64650000000000007 0.42850000000000005 0.63850000000000018 0.21150000000000005 0.68450000000000022 0.78750000000000009 0.21150000000000005 0.31950000000000006
decision_type=2 2 2 2 2 2 2 2 2 2 2 2 2 2 2 2 2 2 2 2 2 2 2 2 2 2 2 2 2 2
left_child=3 4 11 18 8 6 24 -8 9 13 15 -3 -13 -2 -10 16 -11 -4 -1 -20 29 -9 -23 26 -5 -26 28 -28 -6 -21
right_child=1 2 17 5 23 -7 7 21 14 10 -12 12 -14 -15 -16 -17 -18 -19 19 20 -22 22 -24 -25 25 -27 27 -29 -30 -31
leaf_value=-0.070788909111764123 -0.052043923347846369 -0.065841777435819232 -0.0058763986189324839 -0.069454358740620906 -0.017748076592402039 -0.067463952032454824 -0.037426524156996814 0.084771240050046354 -0.06820009690339511 -0.034755962563659912 0.085710292386661779 -0.046272705722372381 0.063382959738232422 0.047909133929676911 0.046142150929272985 -0.059934530628781672 0.07188433289165834 0.084175466347459593 -0.069833751977388989 -0.051006395465330735 -0.059769520766935536 -0.034767772830071146 0.070850302980202812 0.090558503865845574 -0.059144335434631927 0.044840404155234798 -0.064330630158093899 0.070162940066038668 0.084403092828975776 0.069352135314655991
leaf_count=42600 698 3113 307 2080 171 3786 1831 1974 822 324 3870 566 460 399 248 311 795 2695 1078 128 404 348 423 26970 620 429 236 216 1403 400
internal_value=0 0.678968 0.0726622 -0.59272 0.791487 -0.228866 -0.0240452 0.278839 0.425449 0.551829 0.685635 -0.47294 0.0513662 -0.134203 -0.392269 0.209127 0.422217 0.751518 -0.691743 -0.364595 0.00111277 0.68315 0.247491 0.883266 -0.503294 -0.145507 0.582905 0.0279865 0.736134 0.42168
internal_count=99705 43604 7141 56101 36463 11491 7705 4576 7467 6397 5300 4139 1026 1097 1070 1430 1119 3002 44610 2010 932 2745 771 28996 3129 1049 2026 452 1574 528
shrinkage=0.1


Tree=11
num_leaves=31
num_cat=0
split_feature=3 11 3 11 3 11 3 11 3 1 1 1 1 11 3 1 3 11 3 11 1 11 1 11 3 1 11 3 11 1
split_gain=11736.5 7414.37 840.73 609.356 916.283 528.967 284.601 320.68 205.676 198.923 163.694 142.801 124.117 116.761 114.866 109.557 92.7231 110.933 86.9412 80.8178 143.072 94.1704 74.6949 101.523 117.835 61.0926 57.4653 55.6423 146.341 125.626
threshold=0.51850000000000007 0.70950000000000013 0.85250000000000015 0.61450000000000016 0.71250000000000013 0.83550000000000002 0.46750000000000008 0.56850000000000012 0.56150000000000022 0.50650000000000006 0.64650000000000007 0.70450000000000013 0.45950000000000008 0.29750000000000004 0.81850000000000012 0.42850000000000005 0.70850000000000013 0.83150000000000013 0.57550000000000012 0.52250000000000008 0.48050000000000009 0.20350000000000004 0.78050000000000008 0.47450000000000003 0.70850000000000013 0.75050000000000006 0.77550000000000008 0.79950000000000021 0.78450000000000009 0.60650000000000015
decision_type=2 2 2 2 2 2 2 2 2 2 2 2 2 2 2 2 2 2 2 2 2 2 2 2 2 2 2 2 2 2
left_child=6 3 15 8 9 10 -1 13 19 18 -4 -6 -7 25 -13 16 -3 -18 -5 21 -21 -2 -10 -24 -25 -8 -12 -17 29 -29
right_child=1 2 5 4 11 12 7 -9 22 -11 26 14 -14 -15 -16 27 17 -19 -20 20 -22 -23 23 24 -26 -27 -28 28 -30 -31
leaf_value=-0.062668592432956458 0.004671594650984749 -0.048409754710293226 0.11719361401362519 -0.045583878803543032 0.11718504671261604 0.082461360439888817 -0.047971953008987961 -0.060805142634652622 0.11720799199340581 -0.049065680296926317 0.064978046723587216 -0.031227292146760829 -0.048625045848800473 0.041757652564865723 0.10129913162138333 -0.060861480807462745 0.12136472080233543 -0.053624342648830474 0.084533440098746665 0.12868770063687304 -0.039910192921663673 0.09755233119661838 0.11995097422371817 -0.033581876402918841 0.10491597272155935 0.10775328304223045 -0.036786950923015815 0.12899920849145435 -0.059264127060914523 -0.030055471298696724
leaf_count=48342 315 486 1217 188 2657 195 754 3239 17696 2052 269 341 1684 1596 285 11999 237 164 465 165 417 1452 573 334 244 71 290 208 1477 293
internal_value=0 0.545827 -0.328001 0.991708 0.549711 0.340758 -0.581605 -0.229621 1.10112 -0.208867 0.889513 1.03283 -0.321951 0.186515 0.360335 -0.523533 0.0398462 0.588121 0.516815 0.681149 0.154902 0.828052 1.14961 0.782467 0.316277 -0.334516 0.161073 -0.562623 -0.302563 0.419069
internal_count=99705 45703 18519 27184 5988 3655 54002 5660 21196 2705 1776 3283 1879 2421 626 14864 887 401 653 2349 582 1767 18847 1151 578 825 559 13977 1978 501
shrinkage=0.1


Tree=12
num_leaves=31
num_cat=0
split_feature=3 11 11 3 11 3 11 3 1 3 1 1 1 1 3 11 1 1 3 11 1 3 3 1 3 11 11 1 11 11
split_gain=12778 7125.67 462.552 387.894 863.817 315.204 228.948 300.473 264.624 139.962 138.809 121.074 98.4646 84.2884 82.0381 63.9225 70.1227 60.8315 114.635 50.8962 48.8396 48.2745 44.8776 39.91 87.43 99.3881 38.5221 34.0905 37.3372 33.8567
threshold=0.45950000000000008 0.58450000000000013 0.64750000000000008 0.52950000000000019 0.36950000000000005 0.23950000000000002 0.49350000000000005 0.33950000000000008 0.52050000000000007 0.13550000000000004 0.50850000000000006 0.60450000000000015 0.61850000000000016 0.6805000000000001 0.33950000000000008 0.46650000000000008 0.4825000000000001 0.65850000000000009 0.24750000000000003 0.77150000000000007 0.3675000000000001 0.11950000000000001 0.49550000000000005 0.4825000000000001 0.25950000000000006 0.72150000000000014 0.23750000000000002 0.77450000000000008 0.3575000000000001 0.17850000000000002
decision_type=2 2 2 2 2 2 2 2 2 2 2 2 2 2 2 2 2 2 2 2 2 2 2 2 2 2 2 2 2 2
left_child=1 6 5 4 12 13 27 17 -9 11 14 19 -2 -3 -7 16 22 -8 -19 -4 -16 -15 -6 24 25 -11 -14 -1 -29 -5
right_child=3 2 9 29 15 10 7 8 -10 23 -12 -13 26 21 20 -17 -18 18 -20 -21 -22 -23 -24 -25 -26 -27 -28 28 -30 -31
leaf_value=0.093952491703171742 0.082557564708269388 0.086795531886169563 0.096844422860156279 -0.04468705493574264 0.093956311586947713 0.082382387896166642 0.092677177029295149 0.071747345804705057 -0.050938601526083697 0.10776272210957674 -0.059680989610566754 -0.046610008534039793 0.051206702131337704 0.099170740287748041 0.068513220141481534 -0.064142249849926058 -0.051562883406182272 0.086104563885332497 -0.019602617511417748 -0.022149986615073627 -0.057520218926576196 -0.026208510148953409 -0.028542151254326648 -0.064337472897523382 -0.058722619866473348 -0.047737096731754719 -0.036566804564785046 0.090673138601441203 0.00025213327623309275 -0.065786649307811515
leaf_count=26134 1250 918 267 2057 147 279 2738 653 917 175 1431 600 183 85 91 5353 507 614 353 124 274 291 120 9643 1287 225 257 207 179 42346
internal_value=0 0.525312 -0.393158 -0.586295 -0.264559 0.0980877 0.880743 0.604825 0.0523469 -0.547768 -0.299993 0.0113788 0.62441 0.641205 0.255899 -0.573319 -0.171487 0.820232 0.505916 0.63254 -0.237386 0.0383627 0.43045 -0.601805 -0.374512 0.254848 0.0210867 0.933469 0.507442 -0.647649
internal_count=99705 47485 15690 52220 7817 3369 31795 5275 1570 12321 2075 991 1690 1294 644 6127 774 3705 967 391 365 376 267 11330 1687 400 440 26520 386 44403
shrinkage=0.1


Tree=13
num_leaves=31
num_cat=0
split_feature=11 3 11 11 11 1 1 3 3 3 3 3 3 1 1 11 3 3 1 1 11 1 11 3 3 3 1 11 1 11
split_gain=15919.8 1325.36 1333.75 650.901 571.799 428.244 310.815 265.556 358.617 189.196 332.962 186.04 197.919 178.013 157.991 130.196 119.84 259.654 266.773 96.9265 86.6213 86.2566 106.594 113.489 137.229 80.7436 78.4546 69.2417 54.8312 66.4591
threshold=0.58450000000000013 0.7955000000000001 0.78450000000000009 0.66350000000000009 0.4865000000000001 0.65450000000000019 0.56250000000000011 0.6785000000000001 0.25550000000000006 0.59150000000000014 0.30150000000000005 0.17250000000000001 0.69650000000000012 0.72450000000000014 0.56650000000000011 0.86550000000000005 0.57950000000000002 0.33550000000000008 0.4875000000000001 0.36350000000000005 0.69750000000000012 0.47850000000000004 0.73050000000000004 0.65450000000000019 0.25150000000000006 0.86350000000000016 0.70250000000000012 0.53150000000000019 0.75050000000000006 0.3775
decision_type=2 2 2 2 2 2 2 2 2 2 2 2 2 2 2 2 2 2 2 2 2 2 2 2 2 2 2 2 2 2
left_child=4 3 13 6 28 16 9 8 -7 10 -2 -8 -13 -3 15 25 17 -6 -19 -12 -15 22 23 24 -5 -4 -14 -20 -1 -30
right_child=1 2 14 21 5 7 11 -9 -10 -11 19 12 26 20 -16 -17 -18 18 27 -21 -22 -23 -24 -25 -26 -27 -28 -29 29 -31
leaf_value=-0.069016008757519037 -0.052104470421856099 -0.061783550165120674 0.041739881084551685 -0.061447040663175703 -0.065262047559766043 -0.053486917517341616 -0.021460825044991323 -0.061295671037832816 0.073574909961685836 -0.061764326386670398 -0.029269603231969928 0.082334562101689546 -0.052227408441264736 -0.03784038628733416 0.083769007213879254 0.067571437522798136 -0.069832462155384301 -0.054936823398828244 0.0075396502847598834 0.078321153990251802 0.070062409807123485 0.085306858737273283 0.078634790565551171 -0.061236091837572393 0.075454916373522168 -0.063420205980342578 0.049794442559308587 0.075463566675267171 -0.067741978335522909 -0.0079451172135355658
leaf_count=40335 906 3964 245 192 2897 708 554 823 1700 855 202 3433 379 304 2926 669 3615 1046 587 1192 335 25162 2513 256 764 409 287 701 1011 735
internal_value=0 0.608153 0.0929713 0.725474 -0.589874 -0.301011 0.352125 0.15726 0.392017 -0.00733796 0.205281 0.585703 0.689304 -0.491712 0.653815 0.239928 -0.47901 -0.334498 0.0235967 0.629231 0.217058 0.823086 0.619895 0.268146 0.488549 -0.227916 -0.0539399 0.457809 -0.678064 -0.41445
internal_count=99705 45547 8852 36695 54158 12077 7808 3231 2408 3155 2300 4653 4099 4603 4249 1323 8846 5231 2334 1394 639 28887 3725 1212 956 654 666 1288 42081 1746
shrinkage=0.1


Tree=14
num_leaves=31
num_cat=0
split_feature=3 11 3 3 11 11 1 3 11 1 1 11 3 1 3 11 11 11 1 3 11 1 11 1 1 11 1 11 1 11
split_gain=10305.6 6118.41 762.026 487.116 870.227 443.208 249.146 233.07 245.918 164.985 122.417 181.596 181.854 101.996 125.009 167.412 94.7244 87.683 78.9173 64.0209 77.0758 66.2161 63.7069 53.8891 41.1319 37.4741 39.1094 99.0524 37.3003 113.842
threshold=0.51450000000000007 0.70950000000000013 0.85250000000000015 0.65850000000000009 0.56050000000000011 0.85250000000000015 0.49650000000000011 0.46750000000000008 0.56850000000000012 0.64650000000000007 0.70250000000000012 0.58850000000000013 0.77550000000000008 0.4875000000000001 0.70850000000000013 0.82750000000000012 0.30750000000000005 0.65650000000000008 0.45250000000000007 0.5545000000000001 0.24250000000000002 0.49450000000000005 0.77850000000000008 0.71450000000000014 0.75950000000000017 0.058350000000000006 0.77450000000000008 0.46650000000000008 0.65450000000000019 0.46250000000000008
decision_type=2 2 2 2 2 2 2 2 2 2 2 2 2 2 2 2 2 2 2 2 2 2 2 2 2 2 2 2 2 2
left_child=7 3 13 4 19 9 17 -1 16 -4 -5 -12 -13 14 -3 -16 23 -6 -7 20 21 -2 24 -9 -11 -21 -27 -28 -22 -30
right_child=1 2 5 10 6 18 -8 8 -10 22 11 12 -14 -15 15 -17 -18 -19 -20 25 28 -23 -24 -25 -26 26 27 -29 29 -31
leaf_value=-0.061402524077876601 -0.053794651065303484 -0.054855126252216141 0.10250559162163526 0.10656753602378106 0.095346208004941729 0.065157212240899293 -0.046696618715415868 -0.051197208911590408 -0.059572964908207064 0.091378465278663779 0.10342645573463338 -0.047100379661922515 0.081698317204187645 -0.056618651000358726 0.097388286608998065 -0.056555557125590829 0.036108923955836078 -0.020086610997855754 -0.051867827056053806 -0.015516057238788079 0.095089957727851004 0.06928333888367294 -0.044094364746563496 0.074844003333725817 -0.038191180234201157 0.1043339229534171 0.1055019711828476 -0.046561637620450597 0.10425017755813358 -0.054382802293258661
leaf_count=48342 220 1064 1356 15901 470 150 2256 713 2993 207 1396 575 507 13195 404 364 1422 245 1503 61 1043 190 358 98 81 3731 277 157 244 182
internal_value=0 0.500157 -0.315928 0.891494 0.601566 0.319588 -0.164372 -0.572915 -0.235379 0.75664 1.02125 0.713236 0.211623 -0.509035 -0.134283 0.344575 0.138845 0.596368 -0.381202 0.885366 0.657384 0.06438 0.0669647 -0.337596 0.569316 0.981502 0.997548 0.576001 0.807402 0.431486
internal_count=99705 46137 18682 27455 9076 3655 2971 53568 5226 2002 18379 2478 1082 15027 1832 768 2233 715 1653 6105 1879 410 646 811 288 4226 4165 434 1469 426
shrinkage=0.1


Tree=15
num_leaves=31
num_cat=0
split_feature=3 11 3 11 3 11 11 3 1 1 1 1 11 1 3 1 11 1 1 3 11 11 3 3 3 11 11 3 11 3
split_gain=11203.8 6027.59 360.748 805.167 324.874 307.767 248.198 246.162 169.015 129.81 95.9007 83.3747 84.9383 83.2204 136.734 71.4159 62.1542 69.7174 60.2562 86.0133 140.986 57.269 57.1266 50.672 46.4318 37.964 35.8288 33.0656 31.1247 44.8548
threshold=0.45950000000000008 0.60050000000000014 0.53650000000000009 0.3615000000000001 0.20350000000000004 0.53150000000000019 0.69750000000000012 0.33150000000000007 0.47650000000000009 0.61250000000000016 0.54250000000000009 0.42250000000000004 0.70350000000000013 0.63050000000000017 0.22750000000000001 0.50050000000000006 0.46650000000000008 0.48050000000000009 0.6765000000000001 0.35250000000000009 0.42550000000000004 0.63150000000000006 0.38450000000000006 0.4915000000000001 0.49550000000000005 0.2185 0.8055000000000001 0.097150000000000014 0.63450000000000017 0.27850000000000003
decision_type=2 2 2 2 2 2 2 2 2 2 2 2 2 2 2 2 2 2 2 2 2 2 2 2 2 2 2 2 2 2
left_child=1 5 3 10 6 18 9 13 -9 -3 -2 12 22 -7 -15 26 17 24 -1 -20 -21 -11 -6 -12 -5 -25 -8 -23 29 -13
right_child=2 4 -4 16 11 7 15 8 -10 21 23 28 -14 14 -16 -17 -18 -19 19 20 -22 27 -24 25 -26 -27 -28 -29 -30 -31
leaf_value=0.08719088651410567 0.085115384360386181 0.089758224495483263 -0.063364552495884963 0.088158502008202647 0.076184705392476945 0.084881427689806777 0.072843474018958188 0.062577768160030897 -0.054885860466631679 0.058096542286852675 0.060465241487577051 0.014105437070861962 -0.057090392188938202 0.074584943505072998 -0.03704886261804486 -0.057570714539318439 -0.062548325604192698 -0.050702082579088648 0.08106838634829501 0.067648657698930123 -0.069917898919795191 0.063655713481549872 -0.04542943492498569 0.039183600525584845 -0.02676357729300783 -0.052391442687981529 -0.045377414345338631 -0.047674128360388222 -0.063149414923742583 -0.056388245113011874
leaf_count=26455 1040 672 43572 159 279 1655 165 376 917 237 303 319 524 579 420 1488 5943 615 1578 439 259 74 139 153 154 281 104 427 9596 783
internal_value=0 0.492786 -0.568686 -0.270459 -0.418164 0.802882 0.0207589 0.416126 -0.14705 0.45683 0.574297 -0.554751 -0.101974 0.656019 0.318199 -0.421796 -0.55663 -0.193786 0.85287 0.628358 0.200259 0.00218213 0.387231 0.163292 0.367131 -0.175163 0.305141 -0.308123 -0.599306 -0.342317
internal_count=99705 47485 52220 8648 14807 32678 3167 3947 1293 1410 1777 11640 942 2654 999 1757 6871 928 28731 2276 698 738 418 737 313 434 269 501 10698 1102
shrinkage=0.1


Tree=16
num_leaves=31
num_cat=0
split_feature=11 3 11 11 11 1 3 3 1 1 3 1 11 3 3 3 3 3 1 1 1 1 3 11 11 3 1 11 1 11
split_gain=13824.6 1109.84 1246.81 621.378 446.786 412.75 317.137 430.331 229.99 181.213 158.865 158.204 143.245 136.782 234.071 88.6175 82.5362 187.167 178.382 80.8303 76.2273 73.3429 70.7166 69.228 65.2331 60.0042 71.0567 59.6323 53.5723 62.3223
threshold=0.59150000000000014 0.77550000000000008 0.76550000000000007 0.4865000000000001 0.65650000000000008 0.60850000000000015 0.65850000000000009 0.25550000000000006 0.56250000000000011 0.56250000000000011 0.17250000000000001 0.72450000000000014 0.85850000000000015 0.61150000000000004 0.27850000000000003 0.6785000000000001 0.57550000000000012 0.36550000000000005 0.47650000000000009 0.3775 0.68450000000000022 0.38350000000000001 0.86350000000000016 0.53450000000000009 0.66350000000000009 0.13550000000000004 0.60450000000000015 0.74650000000000005 0.75050000000000006 0.3775
decision_type=2 2 2 2 2 2 2 2 2 2 2 2 2 2 2 2 2 2 2 2 2 2 2 2 2 2 2 2 2 2
left_child=3 4 11 28 8 16 7 -7 13 12 -10 -3 22 14 -2 -12 17 -5 -19 -6 -17 -16 -4 -20 -13 26 27 -21 -1 -30
right_child=1 2 9 5 19 6 -8 -9 10 -11 15 24 -14 -15 21 20 -18 18 23 25 -22 -23 -24 -25 -26 -27 -28 -29 29 -31
leaf_value=-0.066713338422697416 -0.060349041931797034 -0.061325838743586138 0.021215648211138128 -0.062078990414244174 0.035733608284277768 -0.051352787676851523 -0.057288267348483413 0.063454694728516559 -0.024254749921405697 0.076126073086729085 0.077953005815192725 -0.052613252666621237 0.061445337370404723 -0.066157610085408602 -0.018991812955328424 -0.047305533859982749 -0.067996994669039232 -0.049390592883194556 -0.0011415071645148754 -0.064400918266182341 0.063594457735984267 0.067790941986424949 -0.065506399472958152 0.078555191122084866 0.048276737429070467 0.080056218182255626 0.071770456797087698 0.064978400818083204 -0.065367415996423928 -0.0066716814044507763
leaf_count=40335 635 3812 364 2832 942 1122 1396 2372 462 3755 2759 207 770 583 252 264 3352 886 427 195 280 1045 467 514 442 26789 580 120 1011 735
internal_value=0 0.57975 0.134769 -0.557079 0.698151 -0.264231 0.0765318 0.303786 0.344503 0.588847 0.567865 -0.485464 0.177627 -0.00561549 0.176429 0.677046 -0.487134 -0.356845 0.00485548 0.774083 0.130569 0.511156 -0.25668 0.437276 0.176126 0.788244 0.420536 -0.136312 -0.654709 -0.390175
internal_count=99705 44723 9817 54982 34906 12901 4890 3494 6280 5356 3765 4461 1601 2515 1932 3303 8011 4659 1827 28626 544 1297 831 941 649 27684 895 315 42081 1746
shrinkage=0.1


Tree=17
num_leaves=31
num_cat=0
split_feature=3 11 3 3 11 11 3 11 1 1 1 11 3 1 1 3 11 11 11 1 11 3 1 1 3 3 7 1 11 3
split_gain=9084.98 5128.04 692.262 423.667 709.357 404.248 190.289 186.593 151.307 141.549 118.318 179.56 219.053 93.375 88.645 105.124 123.676 65.2576 61.1687 149.487 60.6157 53.1935 47.5159 40.718 36.2123 35.6591 33.3325 31.9987 55.1064 38.342
threshold=0.51050000000000006 0.70950000000000013 0.84150000000000014 0.64650000000000007 0.57850000000000013 0.83950000000000014 0.46750000000000008 0.59150000000000014 0.42550000000000004 0.6725000000000001 0.6725000000000001 0.59150000000000014 0.77550000000000008 0.49650000000000011 0.47850000000000004 0.70850000000000013 0.82750000000000012 0.30750000000000005 0.52850000000000008 0.65450000000000019 0.16750000000000001 0.56850000000000012 0.71450000000000014 0.62050000000000016 0.91350000000000009 0.91650000000000009 -11.345499999999998 0.5525000000000001 0.62750000000000006 0.57550000000000012
decision_type=2 2 2 2 2 2 2 2 2 2 2 2 2 2 2 2 2 2 2 2 2 2 2 2 2 2 2 2 2 2
left_child=6 3 14 4 18 9 -1 17 -6 -4 -5 -12 -13 24 15 -3 -17 22 20 -20 21 23 -8 -2 -7 -11 -19 28 29 -10
right_child=1 2 5 10 8 13 7 -9 27 25 11 12 -14 -15 -16 16 -18 26 19 -21 -22 -23 -24 -25 -26 -27 -28 -29 -30 -31
leaf_value=-0.060250123594741051 -0.05239384465127761 -0.052824188824590203 0.089881384880168891 0.097779775598280494 0.071508649251261061 -0.0080086276768449195 -0.052469064708135851 -0.060427826034832592 -0.021663731536433403 -0.034141564154446268 0.093869611224224436 -0.04136433289038538 0.08042308583419279 -0.052447593269374218 -0.056086180130119206 0.091456764707670557 -0.0553630063436783 -0.01345460771172983 0.08204027561478261 -0.052151138166819738 0.087332725724844421 0.074164134750122318 0.066176792132504228 0.08207175170256327 0.094453820344612083 0.061309532228922749 0.039753766147421113 -0.058993982559561155 -0.056697693362560135 0.10564370663560628
leaf_count=48342 211 985 1498 15630 308 177 672 2597 113 377 1999 773 674 1717 13172 344 300 383 557 339 4634 331 96 65 149 144 1039 1605 366 108
internal_value=0 0.462171 -0.304774 0.812263 0.530251 0.264595 -0.565122 -0.240315 -0.271251 0.695873 0.926829 0.677881 0.243436 -0.330941 -0.507897 -0.128542 0.358047 0.0766271 0.763882 0.390199 0.819689 0.376874 -0.342573 -0.152007 0.398895 -0.0682051 0.256672 -0.45067 -0.13306 0.442857
internal_count=99705 46576 18863 27713 8637 4062 53129 4787 2500 2019 19076 3446 1447 2043 14801 1629 644 2190 6137 896 5241 607 768 276 326 521 1422 2192 587 221
shrinkage=0.1


Tree=18
num_leaves=31
num_cat=0
split_feature=3 11 11 3 3 11 3 1 1 1 3 11 11 11 1 1 3 11 1 1 3 11 3 3 1 1 11 3 1 1
split_gain=9859.06 5280.06 412.061 271.558 265.283 625.736 227.164 157.596 134.766 87.3995 129.82 185.278 83.1892 66.5056 91.0564 61.9432 115.145 110.674 59.3338 59.1169 55.5568 47.9268 40.3961 30.6281 27.3597 25.8622 24.5699 94.6068 64.441 21.5538
threshold=0.46750000000000008 0.61850000000000016 0.55150000000000021 0.27150000000000007 0.53650000000000009 0.32550000000000007 0.16450000000000001 0.49050000000000005 0.63050000000000017 0.63650000000000018 0.35250000000000009 0.42550000000000004 0.73350000000000015 0.45450000000000007 0.47150000000000009 0.52250000000000008 0.27150000000000007 0.70350000000000013 0.66250000000000009 0.70650000000000013 0.39550000000000007 0.64150000000000007 0.18850000000000003 0.51050000000000006 0.36350000000000005 0.39850000000000002 0.20350000000000004 0.58750000000000013 0.38650000000000007 0.30250000000000005
decision_type=2 2 2 2 2 2 2 2 2 2 2 2 2 2 2 2 2 2 2 2 2 2 2 2 2 2 2 2 2 2
left_child=1 2 9 19 5 18 8 20 12 -1 -11 -12 -3 14 23 16 17 -8 -2 -4 -5 -10 -21 -7 -22 -14 27 28 -6 -18
right_child=4 6 3 7 26 13 15 -9 21 10 11 -13 25 -15 -16 -17 29 -19 -20 22 24 -23 -24 -25 -26 -27 -28 -29 -30 -31
leaf_value=0.081622522722947122 0.074314596205783665 0.079986073373143549 0.077413573395043622 0.076963155645044912 0.11948254452937486 0.076804058529855335 0.081499695044589052 -0.047606705404928347 0.052170555470857319 0.075526654612440347 0.063656019880143078 -0.057858073255941278 0.078865127205402369 -0.061545339103183209 -0.051385867361929988 -0.06145166294409421 0.021671588431541725 -0.045025156470408792 -0.0058820307633452489 0.050661003408958551 0.076245428257573453 -0.052259935510938951 -0.054420122996139866 -0.021466166199255454 -0.044499458702939199 -0.044523609058257634 -0.06287370508259163 -0.05992027141808224 -0.020507381913089748 -0.05721495431927448
leaf_count=26505 1076 543 1489 385 113 206 321 1402 108 2608 668 486 48 5468 676 9510 95 377 247 189 51 889 138 118 171 261 40978 2247 234 2098
internal_value=0 0.457088 0.732707 0.264089 -0.562715 -0.284635 -0.453632 -0.150821 0.0595051 0.78716 0.579305 0.163607 0.482619 -0.532067 -0.17533 -0.544218 -0.332086 0.218932 0.599074 0.653427 0.444585 -0.374861 0.0887143 0.459678 -0.14992 -0.223335 -0.617995 -0.459106 0.281678 -0.534204
internal_count=99705 48342 34092 3825 51363 7791 14250 2009 1849 30267 3762 1154 852 6468 1000 12401 2891 698 1323 1816 607 997 327 324 222 309 43572 2594 347 2193
shrinkage=0.1


Tree=19
num_leaves=31
num_cat=0
split_feature=11 3 11 11 11 1 3 3 3 3 1 1 1 1 1 3 3 1 11 1 11 3 3 11 11 3 1 11 3 3
split_gain=12052.1 994.577 874.28 551.63 501.533 349.789 263.966 277.643 214.843 279.122 178.864 133.379 127.853 114.102 107.062 100.994 207.077 207.302 86.936 84.2818 90.2298 136.991 102.565 67.6045 54.6093 53.3552 53.1336 59.2561 77.5 52.1576
threshold=0.58450000000000013 0.81850000000000012 0.7955000000000001 0.66750000000000009 0.4865000000000001 0.64850000000000019 0.6785000000000001 0.23150000000000001 0.69250000000000012 0.24750000000000003 0.43450000000000005 0.69650000000000012 0.64250000000000018 0.56250000000000011 0.71650000000000014 0.57550000000000012 0.33550000000000008 0.4875000000000001 0.88150000000000006 0.47850000000000004 0.76550000000000007 0.70050000000000001 0.23950000000000002 0.69750000000000012 0.53850000000000009 0.60350000000000004 0.75050000000000006 0.3775 0.56150000000000022 0.33550000000000008
decision_type=2 2 2 2 2 2 2 2 2 2 2 2 2 2 2 2 2 2 2 2 2 2 2 2 2 2 2 2 2 2
left_child=4 3 14 6 26 15 7 12 9 -7 -9 -8 -2 18 -3 16 -6 -18 -4 20 21 22 -5 -16 -19 -11 -1 -28 29 -29
right_child=1 2 13 19 5 8 11 10 -10 25 -12 -13 -14 -15 23 -17 17 24 -20 -21 -22 -23 -24 -25 -26 -27 27 28 -30 -31
leaf_value=-0.064717772782526814 -0.05108620054386584 -0.058877644431877131 -0.025123583535851913 -0.051296674784846702 -0.061026534673867844 -0.05215942613982355 -0.056449472417836245 -0.0088541292756115931 -0.060169291699683408 0.073590393366056064 0.068459870547965956 0.040578785234736445 0.034804348908450203 0.07446281005501347 -0.046666741638651567 -0.065522620430604042 -0.050325384356660952 0.010863423780660792 0.060609605654516896 0.075524425780815918 0.072210135548396767 -0.068126971108414022 0.061371150369104434 0.054184534277215202 0.072477473348677116 0.010646125434965653 -0.06326427792812972 -0.057751164308471409 -0.058131839071628603 0.070547074329855672
leaf_count=40335 965 3572 538 202 2833 723 1180 758 816 1487 4499 424 640 2305 285 3595 1030 637 464 25809 2114 294 1189 309 591 365 1011 99 362 274
internal_value=0 0.537682 0.0268151 0.631288 -0.54565 -0.266718 0.296458 0.417189 0.14099 0.337598 0.575363 -0.272283 -0.136341 0.565445 -0.477157 -0.442105 -0.303557 0.0221626 0.156417 0.725016 0.52199 0.268637 0.452261 0.0993045 0.414646 0.61684 -0.634287 -0.366517 -0.0515829 0.400222
internal_count=99705 45547 7473 38074 54158 12077 8466 6862 3391 2575 5257 1604 1605 3307 4166 8686 5091 2258 1002 29608 3799 1685 1391 594 1228 1852 42081 1746 735 373
shrinkage=0.1


Tree=20
num_leaves=31
num_cat=0
split_feature=3 11 3 3 11 11 1 3 11 1 1 11 11 3 1 3 11 1 3 11 11 1 11 1 1 11 11 1 7 1
split_gain=8038.24 4318.41 615.322 363.915 633.231 316.667 198.055 184.727 170.447 121.937 91.5159 125.032 90.988 157.023 201.716 89.3819 72.084 66.2276 55.7431 68.4588 55.5537 55.3844 50.555 42.9118 35.2931 100.07 33.4019 30.4906 29.5993 29.2942
threshold=0.51050000000000006 0.71250000000000013 0.85250000000000015 0.65850000000000009 0.56050000000000011 0.85550000000000004 0.49650000000000011 0.46750000000000008 0.59150000000000014 0.64650000000000007 0.74150000000000016 0.57450000000000012 0.78450000000000009 0.74350000000000016 0.58250000000000013 0.77950000000000019 0.65050000000000008 0.45950000000000008 0.5545000000000001 0.24250000000000002 0.30750000000000005 0.49450000000000005 0.77850000000000008 0.71450000000000014 0.65650000000000008 0.46250000000000008 0.058350000000000006 0.78050000000000008 -9.5044999999999984 0.77450000000000008
decision_type=2 2 2 2 2 2 2 2 2 2 2 2 2 2 2 2 2 2 2 2 2 2 2 2 2 2 2 2 2 2
left_child=7 3 12 4 18 9 16 -1 20 -4 -5 -12 13 -3 -15 -13 -6 -7 19 21 23 -2 27 -9 -21 -26 -20 -11 -22 -28
right_child=1 2 5 10 6 17 -8 8 -10 22 11 15 -14 14 -16 -17 -18 -19 26 24 28 -23 -24 -25 25 -27 29 -29 -30 -31
leaf_value=-0.059202306078002358 -0.055445149319044998 -0.052065306991585285 0.08617536564368751 0.089246662258430753 0.085255911896848058 0.053840871728819954 -0.044484135826820662 -0.050992346622879506 -0.059383988306115222 0.072629282764283667 0.08813690252989527 -0.047078014029677678 -0.05751314508803234 0.10252960510921683 -0.038099533674290052 0.057092951249996408 -0.012395371653483232 -0.051101139065492518 -0.023483735592298344 0.079764163034548127 0.00045903010527806082 0.053734146130084814 -0.042317300446082833 0.060943041572555118 0.086216931098494015 -0.057359444600527699 0.088241899614775632 -0.055740126538730395 0.044480228592799154 0.047824367805584286
leaf_count=48342 235 2665 1359 16768 437 158 2380 672 2597 218 884 479 11244 440 716 362 319 1447 61 1145 697 202 378 96 257 199 3731 58 725 434
internal_value=0 0.434016 -0.297174 0.749277 0.501896 0.280932 -0.160198 -0.553382 -0.228729 0.63571 0.861659 0.531628 -0.485764 -0.246517 0.248415 0.0664194 0.491648 -0.362015 0.735793 0.535477 0.0693367 -0.0089629 0.0327231 -0.327141 0.667606 0.313192 0.827889 0.487336 0.231834 0.843073
internal_count=99705 46576 18683 27893 9400 3618 3136 53129 4787 2013 18493 1725 15065 3821 1156 841 756 1605 6264 2038 2190 437 654 768 1601 456 4226 276 1422 4165
shrinkage=0.1


Tree=21
num_leaves=31
num_cat=0
split_feature=3 11 11 3 11 3 3 1 1 1 11 1 3 11 1 3 11 11 11 1 1 3 3 11 1 3 3 11 3 1
split_gain=8702.42 4427.52 343.245 312.656 634.327 229.834 209.614 154.29 125.221 79.0785 66.5653 65.7562 107.114 161.415 61.6715 69.9219 65.9991 56.9598 52.8399 59.2721 52.2636 50.8579 50.1672 43.5426 42.9644 35.6722 30.698 24.7394 83.0013 44.2032
threshold=0.45950000000000008 0.61850000000000016 0.5475000000000001 0.53650000000000009 0.3615000000000001 0.27150000000000007 0.16850000000000001 0.51450000000000007 0.60250000000000015 0.54250000000000009 0.74650000000000005 0.63250000000000017 0.33550000000000008 0.44150000000000006 0.44350000000000006 0.28950000000000004 0.73650000000000004 0.64150000000000007 0.46250000000000008 0.52650000000000008 0.70650000000000013 0.36950000000000005 0.4875000000000001 0.24850000000000003 0.41050000000000003 0.18850000000000003 0.47950000000000004 0.17850000000000002 0.59150000000000014 0.45750000000000007
decision_type=2 2 2 2 2 2 2 2 2 2 2 2 2 2 2 2 2 2 2 2 2 2 2 2 2 2 2 2 2 2
left_child=1 2 11 4 9 20 8 21 10 -2 -3 -1 -13 -14 15 16 -8 -10 19 22 -4 -7 -6 -11 -23 -22 -25 28 29 -5
right_child=3 6 5 27 18 7 14 -9 17 23 -12 12 13 -15 -16 -17 -18 -19 -20 -21 25 24 -24 26 -26 -27 -28 -29 -30 -31
leaf_value=0.077478767385843167 0.075403976584730512 0.081214724304388058 0.073184787965268769 0.090955107226045107 0.084251815956542117 0.073435486467281111 0.087785547041130133 -0.0486067979145485 0.054189572647730139 0.049366878252389619 -0.021356555399210796 0.07387125011669067 0.06014724208815047 -0.052327670262606776 -0.05741338604592236 -0.045577150671846117 -0.055357232121345058 -0.04595735997268946 -0.059501338439234525 -0.056446418853986893 0.048976692507755715 0.052787699617168719 -0.023251626792407328 0.040654008794253571 -0.053192428981515272 -0.047106166737398592 -0.051077864506315462 -0.061397827404310434 -0.058012998746545565 -0.030768025910603819
leaf_count=25923 1040 488 1591 141 158 405 213 1312 141 340 242 2494 774 472 10686 850 146 1066 5978 493 198 151 242 109 184 149 288 41557 1729 145
internal_value=0 0.441682 0.695755 -0.538746 -0.25029 0.275148 -0.43168 -0.110625 0.0538192 0.498855 0.52959 0.748553 0.566036 0.206613 -0.527699 -0.173914 0.395643 -0.300678 -0.526723 -0.180903 0.620758 0.393868 0.237909 0.123515 -0.0358948 0.10334 -0.228531 -0.604147 -0.41788 0.337424
internal_count=99705 47485 33653 52220 8648 3990 13832 2052 1937 1777 730 29663 3740 1246 11895 1209 359 1207 6871 893 1938 740 400 737 335 347 397 43572 2015 286
shrinkage=0.1


Tree=22
num_leaves=31
num_cat=0
split_feature=11 3 11 11 11 1 3 3 1 1 3 1 11 3 3 3 1 11 3 1 11 3 3 1 1 11 3 3 3 3
split_gain=10533.8 870.175 990.758 475.412 411.794 320.147 260.645 383.483 198.524 147.051 143.386 128.747 120.451 110.29 209.9 83.7616 80.2168 75.3053 70.067 68.7023 63.186 60.645 95.4707 59.5348 51.5264 55.8727 69.8533 50.5649 50.323 47.7629
threshold=0.58450000000000013 0.77550000000000008 0.76550000000000007 0.4865000000000001 0.65050000000000008 0.57250000000000012 0.64650000000000007 0.27150000000000007 0.56250000000000011 0.58050000000000013 0.19650000000000004 0.71050000000000002 0.83950000000000014 0.57550000000000012 0.31950000000000006 0.6785000000000001 0.43450000000000005 0.73050000000000004 0.93250000000000011 0.3775 0.66350000000000009 0.61150000000000004 0.28950000000000004 0.72950000000000015 0.75050000000000006 0.3775 0.56150000000000022 0.90250000000000019 0.10750000000000003 0.85950000000000015
decision_type=2 2 2 2 2 2 2 2 2 2 2 2 2 2 2 2 2 2 2 2 2 2 2 2 2 2 2 2 2 2
left_child=3 4 11 24 8 -5 7 -7 13 12 -10 -3 29 14 -2 -12 17 21 -14 -16 -13 22 -6 -17 -1 -26 -27 -22 -18 -4
right_child=1 2 9 5 16 6 -8 -9 10 -11 15 20 18 -15 19 23 28 -19 -20 -21 27 -23 -24 -25 25 26 -28 -29 -30 -31
leaf_value=-0.062958604788451555 -0.047458326795913247 -0.058862928499098389 0.012577402538795933 -0.050418966013523386 -0.059304676635503976 -0.048147437264078857 -0.053555307999071149 0.055040578581431902 -0.018846442943991869 0.070165826672437315 0.07162984852978152 -0.053145059256022614 0.065910445544113502 -0.060159605730892463 -0.024432414452121697 -0.037143557150832236 0.023830636143764471 0.063627327440753875 -0.03196815271378288 0.072401505898379834 0.063499094272392934 -0.060738052001144266 0.065145667105968696 0.065905278654924279 -0.061464065457650777 0.038719267731045115 -0.055718567105886498 -0.048274474727870373 0.072373996278170344 -0.06395407924068984
leaf_count=40335 852 3871 322 6503 192 1410 1711 2453 595 3511 2619 265 896 693 189 325 477 1436 186 844 390 223 469 201 1011 373 362 113 26437 441
internal_value=0 0.509531 0.105682 -0.526677 0.616865 -0.250352 0.017946 0.224001 0.269519 0.522713 0.48469 -0.457941 0.183508 -0.058972 0.123871 0.610204 0.691617 0.428022 0.488523 0.545704 0.0916468 0.0870969 0.304208 0.0582523 -0.616345 -0.347712 -0.0401099 0.386124 0.714934 -0.288489
internal_count=99705 45547 9995 54158 35552 12077 5574 3863 6318 5356 3740 4639 1845 2578 1885 3145 29234 2320 1082 1033 768 884 661 526 42081 1746 735 503 26914 763
shrinkage=0.1


Tree=23
num_leaves=31
num_cat=0
split_feature=3 11 3 11 3 11 3 11 1 3 3 1 1 1 3 11 1 11 11 11 1 1 3 1 11 3 11 1 7 3
split_gain=7129.16 3679.78 498.586 379.241 623.101 220.918 180.234 162.193 159.65 149.08 117.952 93.2588 90.5878 80.4617 71.9601 70.8309 102.467 66.9535 64.8062 61.426 51.9759 50.1603 43.4182 39.5126 55.708 77.7669 39.4783 38.8976 38.2644 36.9703
threshold=0.51050000000000006 0.72750000000000015 0.86750000000000005 0.61850000000000016 0.73150000000000015 0.86550000000000005 0.45950000000000008 0.55750000000000011 0.57250000000000012 0.57550000000000012 0.64650000000000007 0.74150000000000016 0.65450000000000019 0.43750000000000006 0.71250000000000013 0.5445000000000001 0.47150000000000009 0.16750000000000001 0.83150000000000013 0.30750000000000005 0.46850000000000003 0.37150000000000011 0.84850000000000014 0.78350000000000009 0.4865000000000001 0.73550000000000015 0.78750000000000009 0.71450000000000014 -9.5044999999999984 0.79950000000000021
decision_type=2 2 2 2 2 2 2 2 2 2 2 2 2 2 2 2 2 2 2 2 2 2 2 2 2 2 2 2 2 2
left_child=6 3 13 9 8 12 -1 19 10 15 21 -6 -4 14 -3 17 -17 -2 -16 27 -7 -5 -13 -11 -25 -26 -14 -8 -21 -15
right_child=1 2 5 4 11 20 7 -9 -10 23 -12 22 26 29 18 16 -18 -19 -20 28 -22 -23 -24 24 25 -27 -28 -29 -30 -31
leaf_value=-0.058600865141503394 -0.011023079532882769 -0.052304126845908155 0.080516697148476812 0.076839100469219698 0.084418201541419824 0.047715615328327757 -0.050860529529713587 -0.055896381583532662 -0.052850453992813885 0.08407548102383372 0.072958774223529657 -0.029813170179266227 0.046744047262472881 -0.057629887301085064 0.088321762389659331 0.091531640898464259 -0.046269944201534963 0.065350612653221382 -0.040681992543473502 -0.0031724773372196571 -0.05295695426605123 -0.041666809981913633 0.069507441128302316 0.085728646079950621 -0.035794454964684773 0.0836763050061817 -0.048317272847805723 0.048668010221496277 0.046175357082763248 -0.032104288369460686
leaf_count=47485 309 530 1161 104 3022 142 794 3248 2255 17237 547 313 198 11455 246 168 499 2540 201 738 1091 728 149 535 321 203 308 113 751 2314
internal_value=0 0.409984 -0.319465 0.686457 0.358949 0.283108 -0.542477 -0.242536 -0.200043 0.773973 0.217908 0.758463 0.603611 -0.484458 -3.30002e-05 0.492414 -0.00447249 0.581869 0.436196 0.0504524 -0.356308 -0.232537 0.0898449 0.824683 0.546812 0.175908 -0.0222961 -0.340019 0.223631 -0.526648
internal_count=99705 46576 17646 28930 7118 2900 53129 5644 3634 21812 1379 3484 1667 14746 977 3516 667 2849 447 2396 1233 832 462 18296 1059 524 506 907 1489 13769
shrinkage=0.1


Tree=24
num_leaves=31
num_cat=0
split_feature=3 11 11 3 11 3 3 1 1 1 3 1 1 1 3 11 11 3 11 3 11 3 11 1 3 11 1 3 1 11
split_gain=7700.42 3916.97 374.784 276.195 234.553 525.173 169.984 125.069 105.788 99.0061 141.909 78.0148 55.893 50.4741 68.2546 75.6347 48.9239 47.5935 38.843 37.7675 67.3486 29.2657 76.2264 60.1924 25.839 75.5178 114.299 25.7829 61.9654 24.9399
threshold=0.46750000000000008 0.62750000000000006 0.52850000000000008 0.33150000000000007 0.32550000000000007 0.5545000000000001 0.16050000000000003 0.47350000000000003 0.60250000000000015 0.61850000000000016 0.20350000000000004 0.4925000000000001 0.72050000000000003 0.46550000000000008 0.28950000000000004 0.71850000000000014 0.75950000000000017 0.50650000000000006 0.6765000000000001 0.33950000000000008 0.3575000000000001 0.49550000000000005 0.46250000000000008 0.51450000000000007 0.39950000000000002 0.43350000000000005 0.5505000000000001 0.59550000000000003 0.31250000000000006 0.56850000000000012
decision_type=2 2 2 2 2 2 2 2 2 2 2 2 2 2 2 2 2 2 2 2 2 2 2 2 2 2 2 2 2 2
left_child=1 2 12 9 5 11 8 -5 16 -4 -11 -2 24 14 15 -8 -3 -13 -10 -14 -21 22 23 -6 -1 -26 -27 28 -7 -12
right_child=4 6 3 7 21 27 13 -9 18 10 29 17 19 -15 -16 -17 -18 -19 -20 20 -22 -23 -24 -25 25 26 -28 -29 -30 -31
leaf_value=0.074474870680834054 0.079805133650816484 0.077255244931590403 0.070953219260365796 0.035288247274967703 0.070283336528798632 0.10009118812223879 0.086973403593777074 -0.052721690530500388 0.015808345831293761 0.063701242133676964 0.0047949053976476218 0.049537900748247571 0.064181109459766017 -0.057771057784747518 -0.049533660139200214 -0.044745617230031197 -0.020756181732862308 -0.022334023106700292 -0.055122574391952554 0.063783940525680732 -0.045937693251353634 -0.060281741040821346 -0.057270001602900446 -0.042073773806112609 0.073763711550577801 0.0643981065432227 -0.055054082440460332 -0.059515099324337684 -0.045542565472115985 -0.052683973185882887
leaf_count=24903 780 421 2183 528 197 89 207 1406 264 769 300 393 563 10513 1124 250 197 451 782 239 276 41273 2195 227 2194 460 278 5179 579 485
internal_value=0 0.413548 0.648461 0.284626 -0.535422 -0.254408 -0.44409 -0.231254 0.0411323 0.508808 0.212519 0.463187 0.715957 -0.527893 -0.243661 0.2665 0.518065 0.141052 -0.319152 0.382454 0.081367 -0.590103 -0.409968 0.146053 0.728975 0.596758 0.19083 -0.548751 -0.2336 -0.284713
internal_count=99705 48342 34584 5671 51363 7471 13758 1934 1664 3737 1554 1624 28913 12094 1581 457 618 844 1046 1078 515 43892 2619 424 27835 2932 738 5847 668 785
shrinkage=0.1


Tree=25
num_leaves=31
num_cat=0
split_feature=11 11 3 11 3 1 1 3 3 11 3 3 3 1 1 1 11 1 1 3 11 1 3 3 3 1 3 3 3 11
split_gain=9222 797.419 949.589 367.511 347.475 319.834 282.574 207.655 318.231 198.204 187.442 180.285 184.538 83.435 70.3919 61.5928 58.0638 57.4494 51.8974 60.8965 54.016 46.8113 62.9503 163.361 43.2989 42.0297 37.1653 37.0012 36.8707 44.4348
threshold=0.57450000000000012 0.70950000000000013 0.73150000000000015 0.46650000000000008 0.88050000000000006 0.61850000000000016 0.53450000000000009 0.64650000000000007 0.28250000000000003 0.83550000000000002 0.17250000000000001 0.27150000000000007 0.57550000000000012 0.74150000000000016 0.36350000000000005 0.4875000000000001 0.63450000000000017 0.6725000000000001 0.41350000000000003 0.71250000000000013 0.83150000000000013 0.52450000000000008 0.5545000000000001 0.3615000000000001 0.57250000000000012 0.62250000000000016 0.15650000000000003 0.35250000000000009 0.33950000000000008 0.63150000000000006
decision_type=2 2 2 2 2 2 2 2 2 2 2 2 2 2 2 2 2 2 2 2 2 2 2 2 2 2 2 2 2 2
left_child=3 2 6 -1 18 21 11 8 -7 17 16 -2 14 -4 -13 -11 -8 -6 19 26 -21 -5 23 -23 27 -18 -3 -10 29 -16
right_child=1 4 13 5 9 7 10 -9 24 15 -12 12 -14 -15 28 -17 25 -19 -20 20 -22 22 -24 -25 -26 -27 -28 -29 -30 -31
leaf_value=-0.061000217915912869 -0.054510331679881563 -0.050318615008432301 -0.059001484510895541 -0.057799828707633519 -0.058028550451826325 -0.045118085157884506 -0.04631069138599149 -0.052740153202020745 0.032598571408201597 -0.02475237201213909 0.064157719794478291 -0.01606566753251296 -0.034694688219520313 0.0077403984620910502 -0.032178567042971729 0.062288022731512009 -0.034901507906724027 0.01855678382621042 0.068578568824742572 -0.058919254427368978 0.055233355285002096 -0.054430358103241164 -0.06162404974045093 0.045896174382940746 0.017102986487913887 0.052729147226533879 0.064968827728206321 0.084953577774516856 0.070612431761289535 0.06458999946062971
leaf_count=39888 977 65 3744 5587 993 1185 473 1326 410 203 7253 328 922 501 201 1102 178 284 26151 241 154 1111 1268 622 421 389 1014 1120 1365 229
internal_value=0 0.472872 0.19813 -0.52187 0.619817 -0.285553 0.397149 0.0513213 0.253496 0.0790432 0.555738 0.0639539 0.235604 -0.495087 0.471067 0.476826 -0.0469581 -0.379022 0.669747 0.395088 -0.117314 -0.483628 -0.319292 -0.126758 0.59684 0.261939 0.577928 0.711819 0.587371 0.203642
internal_count=99705 46767 16560 52938 30207 13050 12315 4462 3136 2582 8293 4022 3045 4245 2123 1305 1040 1277 27625 1474 395 8588 3001 1733 1951 567 1079 1530 1795 430
shrinkage=0.1


Tree=26
num_leaves=31
num_cat=0
split_feature=3 11 3 3 11 11 1 11 3 1 3 11 1 3 11 1 3 11 1 1 11 11 11 1 1 11 7 11 1 11
split_gain=6351.13 3188.51 458.809 356.431 541.351 190.887 113.502 163.236 153.394 107.388 103.369 87.7946 76.8656 115.589 141.27 76.4455 56.0531 59.3916 59.3436 47.7345 44.1146 43.4115 40.4034 131.199 44.3057 38.195 37.3817 30.8726 28.3237 95.8645
threshold=0.49850000000000005 0.72750000000000015 0.86750000000000005 0.64650000000000007 0.57850000000000013 0.86550000000000005 0.6645000000000002 0.61450000000000016 0.78350000000000009 0.46850000000000003 0.45950000000000008 0.5445000000000001 0.53650000000000009 0.75550000000000006 0.82150000000000012 0.64850000000000019 0.5545000000000001 0.24250000000000002 0.63850000000000018 0.46850000000000003 0.65350000000000008 0.31250000000000006 0.46650000000000008 0.59450000000000014 0.41350000000000003 0.78750000000000009 -11.231499999999999 0.36950000000000005 0.70450000000000013 0.47450000000000003
decision_type=2 2 2 2 2 2 2 2 2 2 2 2 2 2 2 2 2 2 2 2 2 2 2 2 2 2 2 2 2 2
left_child=10 3 12 4 16 15 -5 -8 -9 20 -1 21 13 -3 -15 -4 17 18 -2 -7 -6 -12 24 -24 27 -17 -23 -19 -18 -30
right_child=1 2 5 6 9 19 7 8 -10 -11 11 -13 -14 14 -16 25 28 22 -20 -21 -22 26 23 -25 -26 -27 -28 -29 29 -31
leaf_value=-0.057762127044629179 -0.036085307104865426 -0.049289306249884153 0.076293608685529674 0.079658133813293924 0.071066489081071452 0.044708883945107164 0.073154996358496496 -0.046409428696877676 0.05662752805484244 -0.048034263024343743 -0.040246615363823859 -0.054853306268431767 -0.055015481257917137 0.088489111006210236 -0.046788844675018489 0.045854030094423813 0.075354169421391073 -0.02392656352685436 0.079824286136002787 -0.05171914190710445 -0.019258237160557565 -0.034181601910337478 0.076521483847485666 -0.049115951513859779 0.082174519137623289 -0.044887332659205886 0.030795631025918979 0.069210307578530708 0.079728759700586918 -0.030741357884837891
leaf_count=47485 441 2103 1128 15937 281 142 2410 895 659 2567 733 2589 12202 396 494 217 3195 169 133 1091 287 300 424 373 995 322 808 135 504 290
internal_value=0 0.379922 -0.312817 0.634987 0.385555 0.27136 0.743331 0.511525 0.0796134 -0.288203 -0.546567 -0.281144 -0.474546 -0.207245 0.275297 0.567543 0.586725 0.416847 -0.0473117 -0.340726 0.320406 -0.0311883 0.524326 0.248868 0.676059 0.0161741 0.141031 0.188164 0.694005 0.441649
internal_count=99705 47790 18095 29695 9794 2900 19901 3964 1554 3135 51915 4430 15195 2993 890 1667 6659 2670 574 1233 568 1841 2096 797 1299 539 1108 304 3989 794
shrinkage=0.1


Tree=27
num_leaves=31
num_cat=0
split_feature=3 11 11 3 11 3 3 1 1 1 1 1 3 11 1 1 3 11 3 11 3 11 3 11 11 3 1 3 1 1
split_gain=6822.93 3249 328.588 324.292 573.55 207.055 141.387 124.769 73.6764 69.0572 60.7267 56.748 67.4188 110.783 55.5145 52.7172 69.173 63.7176 46.5359 46.5221 40.1086 36.4248 33.3588 32.1393 25.8173 77.8321 46.7654 21.7153 21.29 20.9935
threshold=0.45250000000000007 0.63150000000000006 0.55150000000000021 0.53650000000000009 0.36950000000000005 0.27150000000000007 0.14050000000000004 0.48450000000000004 0.63250000000000017 0.4925000000000001 0.70650000000000013 0.6765000000000001 0.31150000000000005 0.43350000000000005 0.38650000000000007 0.48050000000000009 0.28550000000000003 0.73650000000000004 0.4915000000000001 0.5415000000000002 0.39550000000000007 0.23750000000000002 0.14450000000000005 0.73350000000000015 0.20350000000000004 0.58750000000000013 0.38650000000000007 0.51050000000000006 0.41350000000000003 0.75050000000000006
decision_type=2 2 2 2 2 2 2 2 2 2 2 2 2 2 2 2 2 2 2 2 2 2 2 2 2 2 2 2 2 2
left_child=1 2 11 4 9 10 8 20 23 -2 -4 -1 -13 -14 19 16 17 -8 -11 27 -7 29 -12 -3 25 26 -5 -6 -25 -20
right_child=3 6 5 24 14 7 15 -9 -10 18 22 12 13 -15 -16 -17 -18 -19 21 -21 -22 -23 -24 28 -26 -27 -28 -29 -30 -31
leaf_value=0.070277366886865034 0.07368075138286731 0.073621908168685635 0.06536955339997233 0.10137208232004934 0.069413334297353413 0.065084144065439831 0.065148105146679028 -0.043805205416793447 -0.034147044394262444 0.050987459256752271 0.060575835002733058 0.066389638963195441 0.05592808866916902 -0.049661566742554938 -0.054733714157515927 -0.056037345161407827 -0.049528236216599783 -0.049156326520473095 0.055079408594273183 -0.050983129802840657 -0.016290163719406388 -0.045949140088375112 -0.032339109261305017 0.092586408087611247 -0.059277897629588641 -0.055387058432109983 -0.01750261766986913 -0.038290793080469815 -0.035357306945738513 -0.05317636169408442
leaf_count=27060 976 354 1763 113 188 411 301 1591 633 495 122 1472 578 415 6857 9865 1178 257 179 296 200 346 264 38 40978 2247 234 74 172 48
internal_value=0 0.410309 0.62551 -0.505135 -0.215654 0.221005 -0.429943 -0.152403 0.106211 0.450613 0.535889 0.682298 0.461341 0.148451 -0.495925 -0.501925 -0.222679 0.231224 0.185297 0.00352298 0.389779 -0.118495 -0.00367857 0.485733 -0.580385 -0.404097 0.265425 0.452648 -0.0609992 0.319685
internal_count=99705 46674 33876 53031 9459 4351 12798 2202 1197 2044 2149 29525 2465 993 7415 11601 1736 558 1068 558 611 573 386 564 43572 2594 347 262 210 227
shrinkage=0.1


Tree=28
num_leaves=31
num_cat=0
split_feature=11 11 3 3 11 1 1 11 3 3 3 3 3 1 1 1 1 3 3 1 3 11 11 3 11 11 1 3 3 11
split_gain=8102.36 756.116 803.199 336.627 304.238 283.389 261.467 225.541 189.524 175.833 276.663 168.043 158.527 78.8171 73.5112 69.5896 67.8163 56.594 53.8437 48.6734 93.2012 141.133 47.6079 46.5221 43.3814 41.7749 38.5673 47.8905 139.675 34.7707
threshold=0.56850000000000012 0.70050000000000001 0.72750000000000015 0.85950000000000015 0.46250000000000008 0.61850000000000016 0.56250000000000011 0.82150000000000012 0.25150000000000006 0.64650000000000007 0.30450000000000005 0.57550000000000012 0.14050000000000004 0.36350000000000005 0.68450000000000022 0.74750000000000016 0.56250000000000011 0.57250000000000012 0.32750000000000007 0.52050000000000007 0.72750000000000015 0.82150000000000012 0.63150000000000006 0.14850000000000005 0.89350000000000007 0.65050000000000008 0.52450000000000008 0.5545000000000001 0.3615000000000001 0.49350000000000005
decision_type=2 2 2 2 2 2 2 2 2 2 2 2 2 2 2 2 2 2 2 2 2 2 2 2 2 2 2 2 2 2
left_child=4 2 6 19 -1 26 8 14 -2 10 -7 13 -8 -10 -5 -4 24 -12 22 20 23 -22 -15 -3 -9 -13 -6 28 -28 -30
right_child=1 3 15 7 5 9 12 16 11 -11 17 25 -14 18 -16 -17 -18 -19 -20 -21 21 -23 -24 -25 -26 -27 27 -29 29 -31
leaf_value=-0.059754954708054746 -0.05672084662635507 -0.01841975747072053 -0.057473759152007031 -0.052987569100695214 -0.057482418694472272 -0.038755234618527291 -0.022089068650216787 -0.033065677083791802 -0.024738515926273175 -0.052985147183136842 0.073355633403368856 -0.057246989876415938 0.060967632894371904 -0.030993818798051964 0.026573851292566134 0.0061735422389225924 0.067406023579196603 0.0096665094139165835 0.065388102641091558 0.067609157207048395 -0.045048664368183028 0.067264792726043188 0.055028991888743772 0.064895440409815583 0.048998214694387532 0.0042489160762845526 -0.056780107315420651 -0.060624947791452499 -0.029976568618218347 0.057968856029501262
leaf_count=39461 1020 155 3799 1295 5504 1308 596 299 347 1261 1345 643 6579 308 333 468 1317 415 1756 22565 529 508 294 4001 261 443 1084 1209 155 447
internal_value=0 0.444412 0.166576 0.586243 -0.514056 -0.290812 0.355882 0.127821 0.0751009 0.0359413 0.222974 0.222736 0.54103 0.420919 -0.328671 -0.487703 0.475157 0.585851 0.521056 0.644048 0.509395 0.102908 0.125288 0.615132 0.0530913 -0.299032 -0.486019 -0.329873 -0.158027 0.390196
internal_count=99705 47516 16253 31263 52189 12728 11986 3505 4811 4329 3068 3791 7175 2705 1628 4267 1877 1760 2358 27758 5193 1037 602 4156 560 1086 8399 2895 1686 602
shrinkage=0.1


Tree=29
num_leaves=31
num_cat=0
split_feature=3 11 3 3 11 11 11 1 1 11 3 3 1 1 3 11 1 11 3 11 11 1 3 3 1 1 11 7 11 1
split_gain=5662.5 2745.55 365.056 355.031 598 136.767 95.4778 171.493 84.1479 148.221 124.903 82.66 80.2859 76.9276 88.7996 87.3316 68.7833 68.0983 62.9536 64.0588 44.8884 38.0323 37.7435 36.1976 61.2721 35.8682 35.7893 36.4725 34.7279 28.5118
threshold=0.49550000000000005 0.74050000000000005 0.88050000000000006 0.68150000000000011 0.61850000000000016 0.88450000000000017 0.5415000000000002 0.62650000000000017 0.65650000000000008 0.64150000000000007 0.81850000000000012 0.45950000000000008 0.42550000000000004 0.4925000000000001 0.75550000000000006 0.82750000000000012 0.61250000000000016 0.5445000000000001 0.54350000000000009 0.2185 0.8025000000000001 0.43150000000000011 0.56150000000000022 0.57550000000000012 0.47150000000000009 0.66850000000000009 0.25350000000000006 -7.9814999999999996 0.058350000000000006 0.37150000000000011
decision_type=2 2 2 2 2 2 2 2 2 2 2 2 2 2 2 2 2 2 2 2 2 2 2 2 2 2 2 2 2 2
left_child=11 3 13 4 6 16 18 23 -5 -10 -11 -1 22 14 -3 -16 -4 26 19 25 -18 -7 -6 24 -8 -2 -13 -28 -20 -21
right_child=1 2 5 8 12 21 7 -9 9 10 -12 17 -14 -15 15 -17 20 -19 28 29 -22 -23 -24 -25 -26 -27 27 -29 -30 -31
leaf_value=-0.057003566516332455 -0.049610821707478096 -0.047583634691173743 0.080282128474818984 0.076545797218452061 -0.044551518492147599 0.067219615070295627 0.079189815045751788 -0.04512339794674719 0.071007076277329884 -0.043924366609751013 0.058212372247132931 -0.053063116731395146 -0.048570756376153545 -0.052938031098237241 0.087184133228167274 -0.035800725812638844 0.051385223063142187 -0.054449817352918053 -0.030708474378101508 0.0011527362185102406 -0.044554106292369687 -0.051976415510211385 0.068894921932732278 0.080923644113193458 -0.030975917372540823 0.066576625150854871 -0.0099359150454408282 0.052268611736838735 0.070682690093332015 0.057836454414264604
leaf_count=47485 338 1272 813 14464 138 67 220 781 2433 806 486 481 3022 13168 293 340 246 2376 74 223 333 815 225 572 281 78 895 308 5265 1407
internal_value=0 0.359232 -0.329685 0.586859 0.377156 0.281642 0.539483 0.210003 0.715509 0.508954 0.0449217 -0.542024 -0.359085 -0.467019 -0.119587 0.341742 0.547952 -0.28727 0.610165 0.384405 0.0696572 -0.362223 0.342366 0.568141 0.248524 -0.220279 -0.0565585 0.0682396 0.692773 0.501556
internal_count=99705 48160 17347 30813 12624 2274 9239 1854 18189 3725 1292 51545 3385 15073 1905 633 1392 4060 7385 2046 579 882 363 1073 501 416 1684 1203 5339 1630
shrinkage=0.1


Tree=30
num_leaves=31
num_cat=0
split_feature=3 11 11 3 3 11 3 1 1 11 1 3 1 1 11 11 3 1 11 3 11 11 11 3 7 1 3 1 1 11
split_gain=6062.42 3052.79 283.061 257.939 182.761 178.079 364.269 138.376 137.554 81.0377 77.3824 101.337 73.5275 42.45 36.8421 36.8033 35.1553 34.5194 32.8342 33.8385 22.9743 22.8263 21.8357 22.7549 20.5284 19.9294 19.7937 19.2616 18.9689 28.804
threshold=0.47550000000000009 0.61850000000000016 0.49650000000000011 0.33950000000000008 0.21150000000000005 0.32150000000000006 0.56450000000000011 0.47650000000000009 0.60250000000000015 0.74650000000000005 0.63850000000000018 0.21150000000000005 0.45550000000000007 0.7895000000000002 0.5545000000000001 0.64150000000000007 0.51850000000000007 0.41050000000000003 0.70350000000000013 0.38750000000000001 0.56050000000000011 0.16750000000000001 0.32950000000000007 0.33550000000000008 -25.309999999999999 0.75050000000000006 0.39950000000000002 0.71650000000000014 0.54250000000000009 0.5475000000000001
decision_type=2 2 2 2 2 2 2 2 2 2 2 2 2 2 2 2 2 2 2 2 2 2 2 2 2 2 2 2 2 2
left_child=1 2 13 10 8 6 12 20 9 -3 -4 -12 -2 -1 27 -10 25 18 19 -6 -5 -18 -15 -24 -17 -14 -22 -13 29 -9
right_child=5 4 3 7 17 -7 -8 28 15 -11 11 14 16 22 -16 24 21 -19 -20 -21 26 -23 23 -25 -26 -27 -28 -29 -30 -31
leaf_value=0.067471488198088042 0.074130085805185514 0.063908300003168994 0.064621981935395256 0.064219003098716004 0.061306917106199489 -0.057318040158024608 -0.053847385696773678 0.028437004278125108 0.022534583480619402 -0.030046465909366771 0.058763627585788694 0.042093397468847382 0.046672427990342068 0.053774389796843458 -0.05429575464529305 0.076282069215213022 0.029744126562529678 -0.055517462976593081 -0.050271514251719177 -0.057006745069849742 0.051643487165185013 -0.050828487312491656 0.048288049581989692 -0.063272021768999778 -0.050610021439257372 -0.036122485863295327 -0.02322781190144271 -0.033655242516284274 -0.055666564117608855 -0.056003251654534042
leaf_count=26989 655 762 3265 381 182 43352 5526 172 198 421 806 213 405 169 434 41 115 10854 468 106 138 353 63 122 1672 74 183 114 1244 228
internal_value=0 0.373014 0.594149 0.316557 -0.397512 -0.521976 -0.256576 -0.139519 -0.0333583 0.376179 0.511145 0.22994 0.353153 0.667396 -0.198627 -0.361132 0.0704375 -0.52313 -0.1605 0.237301 0.392901 -0.271397 0.140794 -0.223551 -0.471384 0.33572 0.0980797 0.157159 -0.438526 -0.150061
internal_count=99705 49225 34521 7178 14704 50480 7128 2346 3094 1183 4832 1567 1602 27343 761 1911 947 11610 756 288 702 468 354 185 1713 479 321 327 1644 400
shrinkage=0.1


Tree=31
num_leaves=31
num_cat=0
split_feature=11 11 3 11 1 1 3 3 3 3 3 3 11 1 11 1 1 3 1 3 11 3 11 1 11 1 1 1 3 1
split_gain=7125.53 677.4 841.847 295.337 263.25 247.884 242.701 163.928 257.316 161.355 142.192 139.777 108.414 94.1653 78.7695 66.426 58.3279 57.339 48.9175 47.0932 55.0828 44.4963 91.0926 114.699 35.9778 35.8642 33.6026 33.3328 32.6677 62.8955
threshold=0.56850000000000012 0.72750000000000015 0.73550000000000015 0.46250000000000008 0.60650000000000015 0.52650000000000008 0.89850000000000019 0.64650000000000007 0.30450000000000005 0.19650000000000004 0.27150000000000007 0.59150000000000014 0.88150000000000006 0.69250000000000012 0.64150000000000007 0.36350000000000005 0.62850000000000017 0.57250000000000012 0.72050000000000003 0.85950000000000015 0.63450000000000017 0.79950000000000021 0.7955000000000001 0.60850000000000015 0.8025000000000001 0.77150000000000007 0.81450000000000011 0.60450000000000015 0.63850000000000018 0.64050000000000007
decision_type=2 2 2 2 2 2 2 2 2 2 2 2 2 2 2 2 2 2 2 2 2 2 2 2 2 2 2 2 2 2
left_child=3 2 5 26 -5 10 21 8 -6 14 -2 15 16 -4 18 -12 -8 -10 -7 20 -15 -3 23 -23 -18 -19 -1 -16 -11 -30
right_child=1 6 13 4 7 9 12 -9 17 28 11 -13 -14 19 27 -17 24 25 -20 -21 -22 22 -24 -25 -26 -27 -28 -29 29 -31
leaf_value=-0.05929775865910733 -0.047516080917310091 0.06534449861176482 -0.057265687901333108 -0.048166128457255979 -0.038105856872715754 -0.053544437777298615 -0.056599617455588641 -0.051871009520225608 0.068169477710252072 0.064314018740651013 -0.016663591557714349 -0.032256438860375165 0.052436816807781499 -0.042091680347978389 -0.019603058414894989 0.050894152880777192 -0.027921819967555772 -0.022095931896026943 0.046008376735920176 -0.056011968136969008 0.051781310207113324 -0.051248807881559721 0.061726873020146206 0.056317881983343469 0.063266688473108776 0.072333851685329395 -0.02137183843172441 0.053692448004076736 0.00092763855355499454 0.063602673503670201
leaf_count=38751 1070 22563 3979 8037 1427 621 751 1364 1450 6925 399 934 656 239 183 2060 197 326 137 302 430 485 2636 475 210 124 710 639 615 1010
internal_value=0 0.425369 0.195033 -0.498946 -0.274414 0.371807 0.586016 0.0253317 0.199275 0.507982 0.0622304 0.209528 0.0236006 -0.438091 0.0519788 0.39585 -0.27863 0.537074 -0.326857 -0.0118625 0.206174 0.626029 0.464835 0.0565224 0.17574 0.0591986 -0.584806 0.370848 0.594629 0.398396
internal_count=99705 47516 19543 52189 12728 14593 27973 4691 3327 10130 4463 3393 1814 4950 1580 2459 1158 1900 758 971 669 26159 3596 960 407 450 39461 822 8550 1625
shrinkage=0.1


Tree=32
num_leaves=31
num_cat=0
split_feature=3 11 3 11 3 11 3 1 1 11 1 1 3 11 3 1 11 11 1 11 1 11 3 11 1 11 3 7 11 1
split_gain=5057.39 2381.51 346.629 596.686 313.477 112.605 96.6277 90.0168 68.3458 144.862 66.1054 64.9352 76.6803 70.9064 60.5461 57.224 79.9672 49.3084 69.9331 58.6525 47.7302 44.7754 39.9943 38.1254 28.4183 27.5186 26.0153 25.4733 26.7834 24.6381
threshold=0.4915000000000001 0.74650000000000005 0.70850000000000013 0.62750000000000006 0.88050000000000006 0.89350000000000007 0.5545000000000001 0.42550000000000004 0.70050000000000001 0.51950000000000018 0.61250000000000016 0.4925000000000001 0.75550000000000006 0.83150000000000013 0.45950000000000008 0.75950000000000017 0.65350000000000008 0.5445000000000001 0.47150000000000009 0.24250000000000002 0.63850000000000018 0.59150000000000014 0.56150000000000022 0.8025000000000001 0.43150000000000011 0.058350000000000006 0.88050000000000006 -9.5044999999999984 0.25850000000000006 0.71450000000000014
decision_type=2 2 2 2 2 2 2 2 2 2 2 2 2 2 2 2 2 2 2 2 2 2 2 2 2 2 2 2 2 2
left_child=14 2 3 6 11 10 17 22 25 -10 -6 12 -3 -14 -1 -4 -17 19 -19 20 -2 27 -5 -12 -7 -8 -18 -16 -29 -21
right_child=1 4 15 7 5 24 8 -9 9 -11 23 -13 13 -15 21 16 26 18 -20 29 -22 -23 -24 -25 -26 -27 -28 28 -30 -31
leaf_value=-0.056318527517136591 -0.035712366021530197 -0.048978052458133102 0.071720999703869248 -0.049668095175430381 0.074182669606716864 0.058069227261648287 -0.019917707086501292 -0.046167865583014035 0.06391950854281174 -0.037603204007604273 0.046059092129930569 -0.052860392393040627 0.079094659908888226 -0.0347758257889852 -0.034089879259816165 0.062077267557742469 -0.051380443978273987 0.060092400981180807 -0.054229274088476713 0.056071418935072781 0.062496635422914198 -0.056257840153321463 0.065878381692784191 -0.044296604062957309 -0.053369488903020061 0.069348538343811883 0.053848392348400421 -0.051308473428140905 0.023032619232451611 0.012904824895061668
leaf_count=47485 491 1229 15554 142 806 57 76 3495 981 582 219 13001 278 336 844 761 350 192 536 1724 156 1928 274 367 754 5832 63 245 594 353
internal_value=0 0.340121 0.548551 0.363946 -0.334694 0.251369 0.514195 -0.333487 0.609151 0.319388 0.488509 -0.468561 -0.136074 0.299647 -0.539319 0.693699 0.357622 0.296987 -0.125858 0.378814 -0.0661504 -0.301184 0.362261 0.00694896 -0.387753 0.681506 -0.284139 -0.124668 0.0787078 0.489208
internal_count=99705 48609 31562 14834 17047 2203 10923 3911 7471 1563 1392 14844 1843 614 51096 16728 1174 3452 728 2724 647 3611 416 586 811 5908 413 1683 839 2077
shrinkage=0.1


Tree=33
num_leaves=31
num_cat=0
split_feature=3 11 3 11 11 3 1 3 1 1 1 1 11 11 1 11 3 3 3 1 1 11 11 3 1 1 3 11 11 3
split_gain=5395.92 2351.59 367.963 581.735 238.276 150.723 140.228 120.674 96.6765 87.5878 51.4712 45.2267 43.3083 43.2382 41.5629 42.6545 37.2646 33.384 32.8285 30.9846 30.2353 29.9863 26.9681 69.9026 46.3644 26.9673 48.3648 45.686 22.7564 42.2539
threshold=0.43850000000000006 0.63150000000000006 0.53650000000000009 0.40550000000000008 0.53450000000000009 0.26750000000000007 0.54050000000000009 0.18050000000000002 0.60250000000000015 0.64250000000000018 0.74750000000000016 0.43450000000000005 0.78450000000000009 0.73050000000000004 0.40150000000000008 0.57850000000000013 0.36550000000000005 0.30450000000000005 0.4875000000000001 0.41950000000000004 0.71850000000000014 0.23750000000000002 0.20350000000000004 0.59550000000000003 0.38650000000000007 0.44950000000000007 0.4915000000000001 0.24850000000000003 0.43750000000000006 0.28550000000000003
decision_type=2 2 2 2 2 2 2 2 2 2 2 2 2 2 2 2 2 2 2 2 2 2 2 2 2 2 2 2 2 2
left_child=1 4 3 9 20 10 16 8 12 25 -6 13 -3 17 15 18 -7 -9 -5 -18 -1 -11 23 24 -4 -2 -27 -28 -22 -30
right_child=2 7 22 14 5 6 -8 11 -10 21 -12 -13 -14 -15 -16 -17 19 -19 -20 -21 28 -23 -24 -25 -26 26 27 -29 29 -31
leaf_value=0.065510499162537289 0.070495971452322267 0.06136982189412149 0.092398359352729345 0.066943481046269557 0.057952569937262256 0.057856404195020916 -0.04414189597893426 0.072293655082171102 -0.035350827386871987 0.031542343786861278 -0.029868931621778595 -0.05457098926432398 -0.033319395607230531 -0.054201140653071238 -0.054072499069334007 -0.057674702596087014 0.048637605360211368 -0.02329313647040536 -0.032453612544529463 -0.033999162622206251 0.057637043339645436 -0.037904467985398246 -0.05747308159329665 -0.054110356503953738 -0.020440266709343971 0.065174625580571854 0.060708754761352096 -0.037192346678882666 0.055286221769222592 -0.044680453274793031
leaf_count=26880 1108 544 133 189 2389 641 1443 169 1308 221 163 9075 204 494 7519 382 171 223 167 282 592 429 40978 2185 276 618 170 326 220 206
internal_value=0 0.394209 -0.467524 -0.17704 0.585214 0.265604 -0.0348167 -0.392117 -0.0144468 0.38599 0.520515 -0.496537 0.415754 -0.112856 -0.490178 -0.10238 0.346925 0.257117 0.265381 0.00167438 0.644396 -0.119452 -0.560946 -0.370261 0.221289 0.532939 0.361351 -0.00277698 0.37878 0.0992059
internal_count=99705 45004 54701 11129 32987 5089 2537 12017 2056 2872 2552 9961 748 886 8257 738 1094 392 356 453 27898 650 43572 2594 409 2222 1114 496 1018 426
shrinkage=0.1


Tree=34
num_leaves=31
num_cat=0
split_feature=11 11 3 3 11 1 1 11 3 3 3 3 3 1 1 1 1 1 3 11 3 3 11 1 1 11 3 11 1 3
split_gain=6283.16 632.158 607.305 284.614 261.731 228.654 218.175 190.311 169.575 161.533 157.653 293.822 122.234 83.9142 68.624 57.1678 52.8661 46.6011 78.0636 116.517 46.7027 39.5954 38.5757 37.7359 33.4721 34.833 41.9935 29.7408 28.3405 34.251
threshold=0.56450000000000011 0.69750000000000012 0.73150000000000015 0.85250000000000015 0.46250000000000008 0.57250000000000012 0.58650000000000013 0.82150000000000012 0.25150000000000006 0.61150000000000004 0.60350000000000004 0.31150000000000005 0.14050000000000004 0.3775 0.68650000000000011 0.51250000000000007 0.77150000000000007 0.52050000000000007 0.71550000000000014 0.78750000000000009 0.18050000000000002 0.31950000000000006 0.63150000000000006 0.85150000000000003 0.79250000000000009 0.36550000000000005 0.56150000000000022 0.65050000000000008 0.6725000000000001 0.5505000000000001
decision_type=2 2 2 2 2 2 2 2 2 2 2 2 2 2 2 2 2 2 2 2 2 2 2 2 2 2 2 2 2 2
left_child=4 2 6 17 24 -6 8 14 -2 13 11 -7 -8 -10 -5 -9 -4 18 20 -20 -3 22 -15 -12 -1 -26 -27 -11 29 -13
right_child=1 3 16 7 5 10 12 15 9 27 23 28 -14 21 -16 -17 -18 -19 19 -21 -22 -23 -24 -25 25 26 -28 -29 -30 -31
leaf_value=-0.05834718512063352 -0.049796524987365913 -0.0076574170850457774 -0.054108887305401858 -0.048180386300412166 -0.050623485695321636 -0.039657671045127602 -0.020908546759858232 -0.0057072690599012585 -0.022278761665357236 -0.061839556277869717 -0.05297896126951717 0.04908058743734748 0.057397428612053991 -0.025723332127250177 0.027002226357370426 0.058683313246627122 0.011671556301581013 0.063368273413250256 -0.054289064638089468 0.050464944268464595 0.061664506844748869 0.056080446570876699 0.052082919417136268 0.049643354245065913 -0.055680145132918607 0.059596263837887291 -0.049127025322493578 -0.0050725928971893409 0.073894546836675776 -0.03389436636944939
leaf_count=38488 1231 243 3887 1430 6806 1713 536 386 482 612 1787 731 5929 331 363 1650 331 22612 434 670 3857 2342 298 103 590 182 201 378 955 147
internal_value=0 0.404332 0.141336 0.541072 -0.490037 -0.268826 0.306375 0.125009 0.0762253 0.210285 -0.0209332 0.167689 0.506541 0.365536 -0.286434 0.446332 -0.470616 0.60022 0.462688 0.0941718 0.569589 0.466681 0.117084 -0.460684 -0.573357 -0.252558 0.110548 -0.372286 0.55917 0.358425
internal_count=99705 48002 16357 31645 51703 12242 12139 3829 5674 4443 5436 3546 6465 3453 1793 2036 4218 27816 5204 1104 4100 2971 629 1890 39461 973 383 990 1833 878
shrinkage=0.1


Tree=35
num_leaves=31
num_cat=0
split_feature=3 11 3 11 3 11 11 1 1 1 11 3 3 3 1 1 1 11 3 3 1 11 3 11 11 11 1 1 11 1
split_gain=4521.26 2058.36 320.621 541.774 260.312 91.5054 85.8571 163.654 74.3097 70.9298 123.672 101.223 64.7014 60.455 60.0689 58.9985 58.0848 52.5324 46.3811 45.9743 53.2543 42.1352 34.3197 33.8617 30.8196 27.149 86.4198 26.8695 26.1849 24.6678
threshold=0.4915000000000001 0.75250000000000006 0.70050000000000001 0.62750000000000006 0.88050000000000006 0.89350000000000007 0.53150000000000019 0.65250000000000019 0.42550000000000004 0.65650000000000008 0.65050000000000008 0.84450000000000014 0.56150000000000022 0.45950000000000008 0.42850000000000005 0.61850000000000016 0.37450000000000006 0.37350000000000005 0.74350000000000016 0.57550000000000012 0.47150000000000009 0.59150000000000014 0.56150000000000022 0.16750000000000001 0.87750000000000006 0.46250000000000008 0.61850000000000016 0.43150000000000011 0.8025000000000001 0.16750000000000001
decision_type=2 2 2 2 2 2 2 2 2 2 2 2 2 2 2 2 2 2 2 2 2 2 2 2 2 2 2 2 2 2
left_child=13 2 3 6 14 15 12 19 22 -4 -11 -12 16 -1 18 -6 17 -2 -3 20 -8 -15 -5 -18 -20 -25 -27 -7 -17 -14
right_child=1 4 9 8 5 27 7 -9 -10 10 11 -13 29 21 -16 28 23 -19 24 -21 -22 -23 -24 25 -26 26 -28 -29 -30 -31
leaf_value=-0.055695047650344831 -0.050301317386817361 -0.044290974801634124 0.070308499974773106 -0.048941089867032612 0.068282469829449619 0.056142214302902275 0.063794041157124892 -0.040620496984649757 -0.047460320704361257 0.065290698546061732 -0.040407229083493167 0.056508785338900004 -0.045397594456133693 -0.011980684965028191 -0.050799819843988937 0.037220760366969217 -0.012605276688917194 0.054349582763604243 0.074802234082057703 0.069661750490500413 -0.026733151241950859 -0.055623623500132648 0.058691636963577459 0.061630412504036648 -0.046801190347980956 0.077763130033773289 -0.044080130476606985 -0.05233232626661373 -0.043797056112523346 0.066933330027801816
leaf_count=47485 345 499 14009 152 775 57 276 957 3551 2267 817 410 44 1683 13653 180 240 164 214 938 427 1928 257 1646 103 272 243 754 353 5006
internal_value=0 0.32595 0.517341 0.331483 -0.337649 0.217521 0.479544 0.216247 -0.35364 0.654483 0.452852 0.0131101 0.553794 -0.531768 -0.466894 0.444097 0.374385 -0.112771 0.0296967 0.488407 0.159901 -0.289271 0.29363 0.468506 0.465937 0.52215 0.226052 -0.371981 -0.0552892 0.659068
internal_count=99705 48609 32021 14518 16588 2119 10558 2598 3960 17503 3494 1227 7960 51096 14469 1308 2910 509 816 1641 703 3611 409 2401 317 2161 515 811 533 5050
shrinkage=0.1


Tree=36
num_leaves=31
num_cat=0
split_feature=3 11 11 3 3 11 3 1 1 1 3 1 11 1 3 11 11 1 11 3 3 11 3 3 11 7 7 1 7 1
split_gain=4804.74 2370.44 237.227 221.288 174.584 146.654 277.282 108.719 97.613 76.23 98.9456 70.7501 65.9355 45.2822 36.4342 40.9898 34.886 34.5402 30.2142 33.818 26.4179 25.4648 22.7568 20.9138 20.8302 19.0634 18.516 18.4345 17.1725 16.9713
threshold=0.47950000000000004 0.61450000000000016 0.49650000000000011 0.36550000000000005 0.21150000000000005 0.32550000000000007 0.56850000000000012 0.61050000000000015 0.47650000000000009 0.63850000000000018 0.22750000000000001 0.45550000000000007 0.72150000000000014 0.72750000000000015 0.38050000000000006 0.33350000000000002 0.64750000000000008 0.41950000000000004 0.70350000000000013 0.38750000000000001 0.51850000000000007 0.5475000000000001 0.074250000000000024 0.12350000000000001 0.5545000000000001 -10.261499999999998 -25.309999999999999 0.74150000000000016 -23.509000000000004 0.75950000000000017
decision_type=2 2 2 2 2 2 2 2 2 2 2 2 2 2 2 2 2 2 2 2 2 2 2 2 2 2 2 2 2 2
left_child=1 2 13 9 7 6 11 12 24 -4 29 -2 -3 -1 -15 -16 23 18 19 -6 -13 27 -14 -9 -5 -22 -18 -12 -8 -11
right_child=5 4 3 8 17 -7 28 16 -10 10 21 20 22 14 15 -17 26 -19 -20 -21 25 -23 -24 -25 -26 -27 -28 -29 -30 -31
leaf_value=0.063395672676207465 0.068963896468790448 0.061994362433913479 0.058485911842767024 0.057439895020674953 0.054116251476947978 -0.055871153398723145 0.077205810266634645 0.072534312572886159 -0.051395731613441513 0.060348974824385095 0.024971138874514187 0.026252120001410851 0.076425201199442003 0.056014174888495021 0.048025070911512667 -0.056149467831232792 0.076199116918896817 -0.053494637184927918 -0.048811703745005201 -0.055693316752451955 0.04376185633457353 -0.054973472542543894 -0.032271630237911957 -0.014923780110753149 -0.0011058692629313377 -0.043228104983304899 -0.050346868021804839 -0.065603288269030002 -0.053140768592044287 -0.0018787510687909678
leaf_count=26669 638 728 3478 295 212 42785 34 87 1349 740 232 434 56 470 166 214 39 11094 548 131 86 486 490 190 276 426 1575 73 5591 113
internal_value=0 0.342933 0.549792 0.2845 -0.365262 -0.507344 -0.254193 -0.00447602 -0.218779 0.450058 0.167086 0.292061 0.346159 0.621198 0.261499 -0.0994499 -0.320419 -0.497551 -0.152452 0.19154 0.00701806 -0.273613 -0.17158 0.146414 0.284252 -0.27734 -0.465178 0.0504276 -0.521017 0.515272
internal_count=99705 49711 34561 7042 15150 49994 7209 3165 1920 5122 1644 1584 1274 27519 850 380 1891 11985 891 343 946 791 546 277 571 512 1614 305 5625 853
shrinkage=0.1


Tree=37
num_leaves=31
num_cat=0
split_feature=11 11 3 11 1 3 1 3 3 3 3 3 11 1 11 1 3 11 1 11 1 1 3 1 3 3 1 3 3 11
split_gain=5547.23 588.211 635.042 232.191 221.539 214.886 201.034 147.826 160.779 124.548 119.974 185.974 84.4506 71.5844 64.955 63.2395 53.2419 94.1839 116.536 44.6124 39.3608 38.2479 35.0266 33.6511 38.6943 121.075 33.541 32.6481 32.7674 30.6556
threshold=0.56050000000000011 0.72150000000000014 0.74350000000000016 0.46250000000000008 0.56850000000000012 0.90250000000000019 0.61850000000000016 0.27150000000000007 0.57550000000000012 0.19650000000000004 0.64250000000000018 0.28250000000000003 0.88150000000000006 0.74150000000000016 0.64150000000000007 0.36350000000000005 0.79950000000000021 0.8055000000000001 0.60850000000000015 0.65050000000000008 0.62850000000000017 0.74750000000000016 0.65050000000000008 0.52450000000000008 0.53250000000000008 0.36550000000000005 0.82650000000000012 0.57250000000000012 0.35250000000000009 0.8025000000000001
decision_type=2 2 2 2 2 2 2 2 2 2 2 2 2 2 2 2 2 2 2 2 2 2 2 2 2 2 2 2 2 2
left_child=3 2 4 26 7 16 23 -2 15 14 11 -8 20 -4 21 -9 -3 18 -18 -10 -7 -6 -21 -5 25 -25 -1 28 -13 -22
right_child=1 5 13 6 9 12 10 8 19 -11 -12 27 -14 -15 -16 -17 17 -19 -20 22 29 -23 -24 24 -26 -27 -28 -29 -30 -31
leaf_value=-0.057139087008627201 -0.040926604133048272 0.061280181804675843 -0.053711949778337015 -0.054723921177422176 -0.044380121743948862 -0.05456528841555347 -0.043628690985580247 -0.016671104054247873 -0.052944366548945923 0.057071168614620763 -0.048879267830117756 0.018943597026007963 0.046258025750924629 0.0075808649898423484 0.039269515095649646 0.049563423632295898 -0.047796002588639475 0.058489328850855893 0.051395109728981883 0.043870369957620781 -0.031465836730193118 0.059524022838047856 -0.027238399417361999 -0.054639797496834203 -0.056745375537391243 0.04492457280692775 -0.014165421799863034 0.0068245487200526925 0.07335432012632831 0.057629756522180421
leaf_count=38873 1472 23169 4239 5150 638 745 1057 394 811 7383 1191 357 606 563 687 2798 627 2587 588 292 195 93 379 1019 1151 503 588 363 995 192
internal_value=0 0.384992 0.162392 -0.482061 0.314302 0.54192 -0.263864 0.0762883 0.208929 0.481811 0.0363203 0.202973 -0.0222868 -0.438024 0.0522445 0.407531 0.580483 0.402276 0.0388549 -0.240125 -0.297939 -0.288928 0.0388041 -0.452172 -0.290205 -0.117542 -0.563081 0.482522 0.591365 0.0965022
internal_count=99705 48458 19749 51247 14947 28709 11786 6146 4674 8801 3963 2772 1738 4802 1418 3192 26971 3802 1215 1482 1132 731 671 7823 2673 1522 39461 1715 1352 387
shrinkage=0.1


Tree=38
num_leaves=31
num_cat=0
split_feature=3 11 3 11 3 1 11 3 1 3 3 1 11 1 3 11 11 11 11 1 11 1 1 1 11 1 11 7 3 1
split_gain=4048.41 1792.11 290.402 407.247 237.596 105.875 141.471 108.782 88.2356 61.1481 56.5538 54.3735 51.6213 50.8176 45.4424 44.2799 40.0526 35.0652 34.9122 85.4198 31.8105 53.0794 30.3866 27.4866 28.5386 26.6384 25.2573 24.0598 22.4368 19.6356
threshold=0.4915000000000001 0.75250000000000006 0.65850000000000009 0.60450000000000015 0.87450000000000017 0.65650000000000008 0.64150000000000007 0.84450000000000014 0.59650000000000014 0.45950000000000008 0.54350000000000009 0.43750000000000006 0.81150000000000011 0.44350000000000006 0.74350000000000016 0.89350000000000007 0.59150000000000014 0.2185 0.53450000000000009 0.62650000000000017 0.52850000000000008 0.47150000000000009 0.21550000000000005 0.37150000000000011 0.39750000000000002 0.66850000000000009 0.86950000000000016 -7.9814999999999996 0.57550000000000012 0.7985000000000001
decision_type=2 2 2 2 2 2 2 2 2 2 2 2 2 2 2 2 2 2 2 2 2 2 2 2 2 2 2 2 2 2
left_child=9 2 3 10 11 -4 -7 -8 15 -1 17 14 -10 28 -3 -6 27 25 22 -20 23 -22 -12 24 -19 -2 -16 -11 -5 -24
right_child=1 4 5 13 8 6 7 -9 12 16 18 -13 -14 -15 26 -17 -18 20 19 -21 21 -23 29 -25 -26 -27 -28 -29 -30 -31
